{"learner":{"attributes":{"scikit_learn":"{\"_estimator_type\": \"classifier\"}"},"feature_names":["Time","V1","V2","V3","V4","V5","V6","V7","V8","V9","V10","V11","V12","V13","V14","V15","V16","V17","V18","V19","V20","V21","V22","V23","V24","V25","V26","V27","V28","Amount"],"feature_types":["float","float","float","float","float","float","float","float","float","float","float","float","float","float","float","float","float","float","float","float","float","float","float","float","float","float","float","float","float","float"],"gradient_booster":{"model":{"gbtree_model_param":{"num_parallel_tree":"1","num_trees":"100"},"iteration_indptr":[0,1,2,3,4,5,6,7,8,9,10,11,12,13,14,15,16,17,18,19,20,21,22,23,24,25,26,27,28,29,30,31,32,33,34,35,36,37,38,39,40,41,42,43,44,45,46,47,48,49,50,51,52,53,54,55,56,57,58,59,60,61,62,63,64,65,66,67,68,69,70,71,72,73,74,75,76,77,78,79,80,81,82,83,84,85,86,87,88,89,90,91,92,93,94,95,96,97,98,99,100],"tree_info":[0,0,0,0,0,0,0,0,0,0,0,0,0,0,0,0,0,0,0,0,0,0,0,0,0,0,0,0,0,0,0,0,0,0,0,0,0,0,0,0,0,0,0,0,0,0,0,0,0,0,0,0,0,0,0,0,0,0,0,0,0,0,0,0,0,0,0,0,0,0,0,0,0,0,0,0,0,0,0,0,0,0,0,0,0,0,0,0,0,0,0,0,0,0,0,0,0,0,0,0],"trees":[{"base_weights":[-0E0,1.8759295E0,-1.5776076E0,-1.2688779E0,1.9256768E0,-1.8892801E0,-8.631201E-1,1.1517857E0,-1.7205021E0,1.994357E0,1.1492168E0,-1.9637103E0,-1.6014603E0,5.788186E-1,-1.2358543E0,1.7956989E0,-5.7E-1,-1.8812243E0,2.9268293E-2,1.9949399E0,-5.1428574E-1,-3.368984E-1,1.8109611E0,-1.970209E0,-1.3003412E0,-3.3095685E-1,-1.8654544E0,1.3478312E0,-6.9500196E-1,1.3605442E-2,-1.4124877E0,1.9441341E0,-4.666667E-1,-1.9886557E0,-1.4232558E0,-5.7303375E-1,1.4666667E0,-4.909091E-1,1.9953773E0,-1.0423852E0,1.9178338E0,1.8774148E0,-1.7037038E0,-1.5390157E0,-1.9794359E0,-1.9665622E0,1.6347032E0,-1.9673024E0,5.275793E-1,-1.8884879E0,-4.4444445E-1,1.502378E0,-1.5431235E0,3.0796713E-1,-1.9212943E0,6.599917E-1,-1.8331347E0,-1.5246742E0,-1.5948963E-1,-1.5E-1,5.9322035E-1,-3.3913043E-1,-5.986239E-1,-5.913979E-1,-1.20000005E-1,-4.1052634E-1,5.771429E-1,5.987007E-1,-4.5000002E-1,-5.9819007E-1,8.356546E-2,5.897921E-1,-4.5882356E-1,-5.4E-1,5.6747544E-1,3.8823533E-1,-5.863637E-1,-5.794589E-1,-1.5086706E-1,-5.9963214E-1,-5.6799775E-1,-5.974522E-1,-9.4736844E-2,5.880597E-1,-4.909091E-1,-4.4587156E-1,-5.979191E-1,-5.884616E-1,3.1990275E-1,-5.8467835E-1,-4.3035594E-1,4.4432434E-1,-5.8969957E-1,4.749296E-1,-5.8695656E-1,-5.864023E-1,1.05000004E-1,3.0160588E-1,-4.8288772E-1,-3.4162682E-1,-5.9884727E-1,-9.7103916E-2,3.6885086E-1,-2.3253588E-1,-5.9348273E-1,-1.8111141E-1,-4.8512247E-1,2.0796815E-1,-5.589172E-1],"categories":[],"categories_nodes":[],"categories_segments":[],"categories_sizes":[],"default_left":[0,0,0,0,0,0,0,0,0,0,0,0,0,0,0,0,0,0,0,0,0,0,0,0,0,0,0,0,0,0,0,0,0,0,0,0,0,0,0,0,0,0,0,0,0,0,0,0,0,0,0,0,0,0,0,0,0,0,0,0,0,0,0,0,0,0,0,0,0,0,0,0,0,0,0,0,0,0,0,0,0,0,0,0,0,0,0,0,0,0,0,0,0,0,0,0,0,0,0,0,0,0,0,0,0,0,0,0,0],"id":0,"left_children":[1,3,5,7,9,11,13,15,17,19,21,23,25,27,29,31,-1,33,35,37,-1,39,41,43,45,47,49,51,53,55,57,59,-1,61,63,-1,65,-1,67,69,71,73,75,77,79,81,83,85,87,89,91,93,95,97,99,101,103,105,107,-1,-1,-1,-1,-1,-1,-1,-1,-1,-1,-1,-1,-1,-1,-1,-1,-1,-1,-1,-1,-1,-1,-1,-1,-1,-1,-1,-1,-1,-1,-1,-1,-1,-1,-1,-1,-1,-1,-1,-1,-1,-1,-1,-1,-1,-1,-1,-1,-1,-1],"loss_changes":[2.945038E5,7.1141406E3,1.2035453E4,7.765353E2,2.3841406E3,8.0309375E2,8.825538E3,2.2350137E2,1.6808826E2,9.2328125E1,3.5793052E3,1.26328125E2,2.594832E3,3.3053184E3,2.879498E3,4.92865E1,0E0,2.4094482E1,1.456692E2,6.85625E1,0E0,1.7867466E3,5.913096E2,1.1474219E2,5.7614343E2,1.8730164E3,2.0885938E2,9.4224756E2,1.5632219E3,1.9314346E3,1.6066426E3,8.265869E0,0E0,3.001709E-1,5.949922E1,0E0,4.1513786E1,0E0,4.490625E1,1.0755867E3,4.743976E1,1.322041E2,3.806041E1,2.5311047E2,4.4484375E1,9.223145E0,6.1500946E1,2.7229004E0,1.1751709E3,1.7017773E2,3.0607825E2,5.608086E2,8.424437E1,9.373951E2,3.1221924E1,6.718118E2,6.288562E1,8.918496E2,1.3675189E3,0E0,0E0,0E0,0E0,0E0,0E0,0E0,0E0,0E0,0E0,0E0,0E0,0E0,0E0,0E0,0E0,0E0,0E0,0E0,0E0,0E0,0E0,0E0,0E0,0E0,0E0,0E0,0E0,0E0,0E0,0E0,0E0,0E0,0E0,0E0,0E0,0E0,0E0,0E0,0E0,0E0,0E0,0E0,0E0,0E0,0E0,0E0,0E0,0E0,0E0],"parents":[2147483647,0,0,1,1,2,2,3,3,4,4,5,5,6,6,7,7,8,8,9,9,10,10,11,11,12,12,13,13,14,14,15,15,17,17,18,18,19,19,21,21,22,22,23,23,24,24,25,25,26,26,27,27,28,28,29,29,30,30,31,31,33,33,34,34,36,36,38,38,39,39,40,40,41,41,42,42,43,43,44,44,45,45,46,46,47,47,48,48,49,49,50,50,51,51,52,52,53,53,54,54,55,55,56,56,57,57,58,58],"right_children":[2,4,6,8,10,12,14,16,18,20,22,24,26,28,30,32,-1,34,36,38,-1,40,42,44,46,48,50,52,54,56,58,60,-1,62,64,-1,66,-1,68,70,72,74,76,78,80,82,84,86,88,90,92,94,96,98,100,102,104,106,108,-1,-1,-1,-1,-1,-1,-1,-1,-1,-1,-1,-1,-1,-1,-1,-1,-1,-1,-1,-1,-1,-1,-1,-1,-1,-1,-1,-1,-1,-1,-1,-1,-1,-1,-1,-1,-1,-1,-1,-1,-1,-1,-1,-1,-1,-1,-1,-1,-1,-1],"split_conditions":[-1.82915E0,-1.7115287E-1,7.557925E-1,-2.0498838E0,-1.7753103E0,3.1089818E-1,-7.91827E-1,5.3451884E-1,1.5124252E0,3.1820083E-1,1.8932652E0,1.6297259E0,-6.228293E-1,-8.206441E-2,-5.083893E-1,-4.2729312E-1,-5.7E-1,-1.9141952E0,4.0946773E-1,-4.911356E-1,-5.1428574E-1,2.1410127E0,6.0480803E-1,-1.4758979E0,1.0213534E0,3.2840475E-2,9.965167E-1,1.4185989E0,-7.959919E-2,1.3242038E-1,4.8322505E-1,9.442091E-1,-4.666667E-1,-1.9733579E0,1.1643376E0,-5.7303375E-1,8.835931E-2,-4.909091E-1,-8.89748E-2,-2.2708978E-1,-6.447007E-1,-6.943626E-1,-1.7681683E0,1.095795E0,-1.7488364E-2,9.311416E-1,-1.7005564E0,-1.3393388E0,1.5012275E-1,4.1794327E-1,-1.0901793E0,4.4676283E-1,2.7552533E-1,5.7960385E-1,-6.675546E-1,1.7519177E0,-3.4859163E-1,-1.5210938E0,-4.3618947E-2,-1.5E-1,5.9322035E-1,-3.3913043E-1,-5.986239E-1,-5.913979E-1,-1.20000005E-1,-4.1052634E-1,5.771429E-1,5.987007E-1,-4.5000002E-1,-5.9819007E-1,8.356546E-2,5.897921E-1,-4.5882356E-1,-5.4E-1,5.6747544E-1,3.8823533E-1,-5.863637E-1,-5.794589E-1,-1.5086706E-1,-5.9963214E-1,-5.6799775E-1,-5.974522E-1,-9.4736844E-2,5.880597E-1,-4.909091E-1,-4.4587156E-1,-5.979191E-1,-5.884616E-1,3.1990275E-1,-5.8467835E-1,-4.3035594E-1,4.4432434E-1,-5.8969957E-1,4.749296E-1,-5.8695656E-1,-5.864023E-1,1.05000004E-1,3.0160588E-1,-4.8288772E-1,-3.4162682E-1,-5.9884727E-1,-9.7103916E-2,3.6885086E-1,-2.3253588E-1,-5.9348273E-1,-1.8111141E-1,-4.8512247E-1,2.0796815E-1,-5.589172E-1],"split_indices":[14,4,4,10,10,4,14,5,0,12,4,22,10,12,8,12,0,14,19,11,0,21,10,14,21,25,21,3,13,13,23,2,0,10,0,0,24,0,3,29,7,11,19,1,4,21,13,19,7,25,13,24,21,9,22,4,29,19,12,0,0,0,0,0,0,0,0,0,0,0,0,0,0,0,0,0,0,0,0,0,0,0,0,0,0,0,0,0,0,0,0,0,0,0,0,0,0,0,0,0,0,0,0,0,0,0,0,0,0],"split_type":[0,0,0,0,0,0,0,0,0,0,0,0,0,0,0,0,0,0,0,0,0,0,0,0,0,0,0,0,0,0,0,0,0,0,0,0,0,0,0,0,0,0,0,0,0,0,0,0,0,0,0,0,0,0,0,0,0,0,0,0,0,0,0,0,0,0,0,0,0,0,0,0,0,0,0,0,0,0,0,0,0,0,0,0,0,0,0,0,0,0,0,0,0,0,0,0,0,0,0,0,0,0,0,0,0,0,0,0,0],"sum_hessian":[9.951E4,4.5457E4,5.4053E4,7.075E2,4.47495E4,3.76345E4,1.64185E4,1.11E2,5.965E2,4.11115E4,3.638E3,2.989725E4,7.73725E3,3.37225E3,1.304625E4,9.2E1,1.9E1,5.4625E2,5.025E1,4.11055E4,6E0,1.121E3,2.517E3,2.960525E4,2.92E2,1.3315E3,6.40575E3,2.10275E3,1.2695E3,1.616E3,1.143025E4,8.85E1,3.5E0,4.3975E2,1.065E2,2.125E1,2.9E1,4.5E0,4.1101E4,8.5425E2,2.6675E2,2.47075E3,4.625E1,6.2375E2,2.89815E4,2.3825E2,5.375E1,4.5775E2,8.7375E2,6.30325E3,1.025E2,1.9965E3,1.0625E2,6.9875E2,5.7075E2,1.1975E3,4.185E2,1.049075E4,9.395E2,1E0,8.75E1,4.75E0,4.35E2,6.875E1,3.775E1,3.75E0,2.525E1,4.1098E4,3E0,4.9625E2,3.58E2,2.635E2,3.25E0,9E0,2.46175E3,3.25E0,4.3E1,4.5175E2,1.72E2,2.36485E4,5.333E3,2.345E2,3.75E0,4.925E1,4.5E0,2.625E1,4.315E2,1.55E2,7.1875E2,5.55975E3,7.435E2,4.525E1,5.725E1,1.9515E3,4.5E1,8.725E1,1.9E1,5.1275E2,1.86E2,5.125E1,5.195E2,4.3925E2,7.5825E2,5.125E1,3.6725E2,9.5725E2,9.5335E3,6.265E2,3.13E2],"tree_param":{"num_deleted":"0","num_feature":"30","num_nodes":"109","size_leaf_vector":"1"}},{"base_weights":[2.972883E-4,1.4499611E0,-1.2030053E0,-9.790827E-1,1.4885988E0,-1.4597368E0,-6.495431E-1,8.8149536E-1,-1.3253767E0,1.5451012E0,8.891808E-1,-8.4180564E-1,-1.4824119E0,2.3149854E-1,-1.0298846E0,1.3892041E0,-4.4844508E-1,-1.4487696E0,1.456583E-2,4.3237084E-1,1.5464342E0,-2.1316846E-1,1.4003875E0,-1.4228656E0,8.725887E-2,-1.5249195E0,-1.2968732E0,9.127466E-1,-5.986156E-1,-1.3407125E0,-5.979261E-1,1.5061067E0,-3.6102137E-1,-1.5531516E0,-1.0399024E0,-4.463662E-1,1.1249931E0,1.3533126E0,-6.4264166E-1,1.5466481E0,-9.621033E-1,-1.4875247E0,5.7404816E-1,1.4493724E0,-1.3102461E0,-1.4969097E0,-3.8116527E-1,-1.1625627E0,1.234692E0,-1.530246E0,-9.8624504E-1,-4.3815106E-1,-1.4442922E0,-1.7805068E0,1.1081351E0,7.1782894E-2,-1.403021E0,-8.9931744E-1,-1.5097795E0,-1.8434617E-1,-1.3058505E0,4.5791188E-1,1.9572778E-2,-2.6198673E-1,-4.6766448E-1,2.54681E-1,-4.6858132E-1,-3.7778276E-1,4.4288862E-1,-3.8671938E-1,4.5088565E-1,4.6403453E-1,-4.51436E-1,-5.9402283E-2,-3.6699158E-1,-4.911547E-1,3.0348635E-1,2.8152388E-1,-5.202961E-1,4.3868822E-1,-6.7908597E-1,3.0895537E-1,-4.5531148E-1,-4.6703422E-1,1.143867E-3,-4.580826E-1,5.6357807E-1,1.6656071E-2,-4.6905726E-1,4.5346615E-1,-4.6495673E-1,-4.643883E-1,-4.3715844E-1,-4.5646653E-1,3.801946E-1,-5.040493E-1,1.342293E-1,-4.437884E-1,-2.7260348E-1,-5.411433E-1,-2.9182568E-1,3.6007437E-1,-4.0604955E-1,2.3954383E-1,-4.383364E-1,-3.0796856E-1,-4.692999E-1,1.2502399E-2,-4.2970157E-1,5.065076E-1,-4.5958337E-1,1.4560045E-1,-2.1546826E-1,-5.0129753E-1,5.4874595E-2],"categories":[],"categories_nodes":[],"categories_segments":[],"categories_sizes":[],"default_left":[0,0,0,0,0,0,0,0,0,0,0,0,0,0,0,0,0,0,0,0,0,0,0,0,0,0,0,0,0,0,0,0,0,0,0,0,0,0,0,0,0,0,0,0,0,0,0,0,0,0,0,0,0,0,0,0,0,0,0,0,0,0,0,0,0,0,0,0,0,0,0,0,0,0,0,0,0,0,0,0,0,0,0,0,0,0,0,0,0,0,0,0,0,0,0,0,0,0,0,0,0,0,0,0,0,0,0,0,0,0,0,0,0,0,0],"id":1,"left_children":[1,3,5,7,9,11,13,15,17,19,21,23,25,27,29,31,-1,33,35,37,39,41,43,45,47,49,51,53,55,57,59,61,-1,63,65,-1,67,69,-1,71,73,75,77,79,81,83,85,87,89,91,93,95,97,99,101,103,105,107,109,111,113,-1,-1,-1,-1,-1,-1,-1,-1,-1,-1,-1,-1,-1,-1,-1,-1,-1,-1,-1,-1,-1,-1,-1,-1,-1,-1,-1,-1,-1,-1,-1,-1,-1,-1,-1,-1,-1,-1,-1,-1,-1,-1,-1,-1,-1,-1,-1,-1,-1,-1,-1,-1,-1,-1],"loss_changes":[1.6026575E5,3.9124531E3,7.1325312E3,4.219511E2,1.3879062E3,4.7926562E2,5.3316675E3,1.2643891E2,9.112268E1,5.4929688E1,1.9928662E3,6.5668506E2,2.5890625E2,2.7139673E3,1.4912783E3,2.7711227E1,0E0,1.9918213E1,8.084093E1,1.1252324E2,2.1585938E1,1.1255402E3,3.2266553E2,5.714685E1,6.738937E2,7.569531E1,7.807715E2,1.3889995E3,1.1667493E3,4.8085645E2,1.3618352E3,2.3009644E0,0E0,1.9647217E-1,1.0548973E2,0E0,2.5190487E1,1.5644894E1,0E0,1.7570312E1,5.182648E-1,1.6187518E2,5.8511536E2,1.1717822E2,2.2635803E1,6.2747803E1,1.3491905E2,1.0995648E2,1.9118616E2,3.2226562E1,3.2315005E2,9.9709283E2,9.7416016E1,1.6085205E0,5.589951E2,1.3166665E3,5.81167E1,8.989032E2,3.3368164E2,1.0506785E3,9.328274E2,0E0,0E0,0E0,0E0,0E0,0E0,0E0,0E0,0E0,0E0,0E0,0E0,0E0,0E0,0E0,0E0,0E0,0E0,0E0,0E0,0E0,0E0,0E0,0E0,0E0,0E0,0E0,0E0,0E0,0E0,0E0,0E0,0E0,0E0,0E0,0E0,0E0,0E0,0E0,0E0,0E0,0E0,0E0,0E0,0E0,0E0,0E0,0E0,0E0,0E0,0E0,0E0,0E0,0E0],"parents":[2147483647,0,0,1,1,2,2,3,3,4,4,5,5,6,6,7,7,8,8,9,9,10,10,11,11,12,12,13,13,14,14,15,15,17,17,18,18,19,19,20,20,21,21,22,22,23,23,24,24,25,25,26,26,27,27,28,28,29,29,30,30,31,31,33,33,34,34,36,36,37,37,39,39,40,40,41,41,42,42,43,43,44,44,45,45,46,46,47,47,48,48,49,49,50,50,51,51,52,52,53,53,54,54,55,55,56,56,57,57,58,58,59,59,60,60],"right_children":[2,4,6,8,10,12,14,16,18,20,22,24,26,28,30,32,-1,34,36,38,40,42,44,46,48,50,52,54,56,58,60,62,-1,64,66,-1,68,70,-1,72,74,76,78,80,82,84,86,88,90,92,94,96,98,100,102,104,106,108,110,112,114,-1,-1,-1,-1,-1,-1,-1,-1,-1,-1,-1,-1,-1,-1,-1,-1,-1,-1,-1,-1,-1,-1,-1,-1,-1,-1,-1,-1,-1,-1,-1,-1,-1,-1,-1,-1,-1,-1,-1,-1,-1,-1,-1,-1,-1,-1,-1,-1,-1,-1,-1,-1,-1,-1],"split_conditions":[-1.82915E0,-1.7115287E-1,7.289192E-1,-2.0498838E0,-1.8989291E0,-1.3650398E0,-4.320414E-1,2.143236E-1,1.5124252E0,4.5980703E-2,2.0052378E0,1.4284527E0,3.30193E-1,-8.206441E-2,1.528994E0,-2.138346E0,-4.4844508E-1,1.969492E0,4.0946773E-1,2.5803375E-1,-1.441821E-1,-7.719753E-1,6.0480803E-1,1.9044278E0,5.341798E-2,1.6297259E0,-6.0694987E-1,-1.0857408E0,-7.1901064E-3,3.8001467E-2,3.5935932E-1,8.254471E-1,-3.6102137E-1,-1.9733579E0,-1.266239E-1,-4.463662E-1,-8.730352E-3,1.9052729E-1,-6.4264166E-1,3.4578674E0,5.6979585E-1,1.0825403E0,2.568958E-2,1.4420285E0,-1.7681683E0,6.357833E-1,9.100316E-1,-6.93315E-2,5.323943E-1,-1.7488364E-2,1.0213534E0,1.1223499E-1,3.2583606E-1,-1.1132917E0,4.8933402E-1,2.0970182E-1,-1.483035E-1,-7.880755E-2,-4.006244E0,-1.1562115E-1,1.14870384E-1,4.5791188E-1,1.9572778E-2,-2.6198673E-1,-4.6766448E-1,2.54681E-1,-4.6858132E-1,-3.7778276E-1,4.4288862E-1,-3.8671938E-1,4.5088565E-1,4.6403453E-1,-4.51436E-1,-5.9402283E-2,-3.6699158E-1,-4.911547E-1,3.0348635E-1,2.8152388E-1,-5.202961E-1,4.3868822E-1,-6.7908597E-1,3.0895537E-1,-4.5531148E-1,-4.6703422E-1,1.143867E-3,-4.580826E-1,5.6357807E-1,1.6656071E-2,-4.6905726E-1,4.5346615E-1,-4.6495673E-1,-4.643883E-1,-4.3715844E-1,-4.5646653E-1,3.801946E-1,-5.040493E-1,1.342293E-1,-4.437884E-1,-2.7260348E-1,-5.411433E-1,-2.9182568E-1,3.6007437E-1,-4.0604955E-1,2.3954383E-1,-4.383364E-1,-3.0796856E-1,-4.692999E-1,1.2502399E-2,-4.2970157E-1,5.065076E-1,-4.5958337E-1,1.4560045E-1,-2.1546826E-1,-5.0129753E-1,5.4874595E-2],"split_indices":[14,4,4,10,10,14,14,16,0,11,4,1,4,12,4,3,0,1,19,16,3,6,10,7,25,22,10,11,13,14,16,19,0,10,26,0,24,22,0,7,5,25,8,0,19,4,17,9,26,4,21,15,21,11,24,8,22,8,23,8,17,0,0,0,0,0,0,0,0,0,0,0,0,0,0,0,0,0,0,0,0,0,0,0,0,0,0,0,0,0,0,0,0,0,0,0,0,0,0,0,0,0,0,0,0,0,0,0,0,0,0,0,0,0,0],"split_type":[0,0,0,0,0,0,0,0,0,0,0,0,0,0,0,0,0,0,0,0,0,0,0,0,0,0,0,0,0,0,0,0,0,0,0,0,0,0,0,0,0,0,0,0,0,0,0,0,0,0,0,0,0,0,0,0,0,0,0,0,0,0,0,0,0,0,0,0,0,0,0,0,0,0,0,0,0,0,0,0,0,0,0,0,0,0,0,0,0,0,0,0,0,0,0,0,0,0,0,0,0,0,0,0,0,0,0,0,0,0,0,0,0,0,0],"sum_hessian":[9.187326E4,4.1670746E4,5.0202516E4,6.520779E2,4.1018668E4,3.429339E4,1.5909123E4,1.020791E2,5.499988E2,3.748379E4,3.534879E3,1.2152087E3,3.3078184E4,4.7971523E3,1.1111971E4,8.4451164E1,1.7627937E1,5.035469E2,4.645189E1,4.5235973E1,3.743855E4,1.1201049E3,2.4147742E3,7.4729834E2,4.6791043E2,2.690656E4,6.1716235E3,2.6347764E3,2.1623762E3,6.460808E3,4.6511626E3,8.120849E1,3.2426736E0,3.989085E2,1.046384E2,1.9596758E1,2.6855131E1,3.366708E1,1.15688925E1,3.7435742E4,2.8103802E0,4.2737506E2,6.927298E2,2.3723674E3,4.2406696E1,6.972974E2,5.000094E1,2.239565E2,2.4395392E2,2.6641285E4,2.6527496E2,9.048432E2,5.2667803E3,1.7766824E2,2.4571082E3,1.1799261E3,9.8244995E2,1.7910657E3,4.6697427E3,2.9367375E3,1.714425E3,8.002359E1,1.1849004E0,4.616002E0,3.942925E2,2.2522131E1,8.2116264E1,3.1168242E0,2.3738308E1,1.3963019E0,3.227078E1,3.7434598E4,1.1443539E0,1.1638439E0,1.6465362E0,4.0355377E2,2.382129E1,5.988049E2,9.392496E1,2.3647441E3,7.6233425E0,3.1305468E0,3.927615E1,6.705102E2,2.678722E1,3.339354E1,1.66074E1,5.5676884E1,1.6827962E2,2.2230751E2,2.1646402E1,2.1425424E4,5.2158613E3,2.1461919E2,5.0655758E1,3.7625494E2,5.2858826E2,4.942054E3,3.2472614E2,1.7148766E2,6.180597E0,2.368975E3,8.8133095E1,8.007823E2,3.791439E2,2.9690836E2,6.8554156E2,6.4800433E2,1.1430614E3,3.162404E1,4.6381187E3,1.302731E3,1.6340065E3,1.3766576E3,3.377675E2],"tree_param":{"num_deleted":"0","num_feature":"30","num_nodes":"115","size_leaf_vector":"1"}},{"base_weights":[5.6403124E-4,1.252963E0,-1.0073403E0,-8.791188E-1,1.2860216E0,-1.2555364E0,-5.237968E-1,7.932613E-1,-1.1352844E0,1.3398398E0,7.1476483E-1,-1.019209E0,-1.3144143E0,1.3875203E-1,-8.456415E-1,1.221669E0,-3.7144443E-1,-1.3290154E0,-5.140731E-1,1.3410313E0,-4.673476E-1,9.51486E-1,-1.1286287E0,-1.3122149E0,-4.789745E-1,-1.1303537E0,-1.3446187E0,4.6195424E-1,-1.0592941E0,-1.1158658E0,-4.359704E-1,1.3120879E0,-2.7702105E-1,-1.5965521E-1,-4.0527627E-1,3.9526007E-1,-4.1723377E-1,1.3414217E0,-5.589015E-1,1.0835024E0,-1.4758568E0,-1.3885648E0,1.3753207E-1,-9.86378E-1,-1.3433849E0,-1.0602069E0,6.4974576E-1,-1.2137656E0,4.567985E-1,-1.3064618E0,-1.3545401E0,7.954434E-1,-7.5773275E-1,-1.375519E0,7.430348E-1,-1.192261E0,-3.965928E-1,3.1974372E-1,-8.0606586E-1,3.9769247E-1,8.45854E-2,-3.23459E-1,3.0048534E-1,3.9172083E-1,-4.0011233E-1,-4.274888E-1,4.0254715E-1,-4.3254212E-1,3.4387773E-1,2.9889783E-1,-4.6022224E-1,3.1695145E-1,-4.6062383E-1,-2.73259E-1,3.7362736E-1,-3.9314136E-1,-3.5843607E-3,-4.0418005E-1,-3.3706188E-1,-3.969678E-1,-1.4246865E-1,-3.9961222E-1,3.2850903E-1,-3.832347E-1,3.2833256E-2,-4.0643787E-1,5.173407E-1,-4.0198225E-1,-3.130905E-1,-4.035317E-1,-4.1151932E-1,2.805612E-1,-3.352142E-1,2.9978406E-1,-4.2040718E-1,-1.7344816E-1,-4.3119523E-1,5.422774E-1,-4.825145E-1,-2.514568E-1,-3.9487895E-1,-2.4114688E-1,5.8393854E-1,2.1139333E-1,-2.4751857E-1,-1.1835245E-2,-3.2996383E-1],"categories":[],"categories_nodes":[],"categories_segments":[],"categories_sizes":[],"default_left":[0,0,0,0,0,0,0,0,0,0,0,0,0,0,0,0,0,0,0,0,0,0,0,0,0,0,0,0,0,0,0,0,0,0,0,0,0,0,0,0,0,0,0,0,0,0,0,0,0,0,0,0,0,0,0,0,0,0,0,0,0,0,0,0,0,0,0,0,0,0,0,0,0,0,0,0,0,0,0,0,0,0,0,0,0,0,0,0,0,0,0,0,0,0,0,0,0,0,0,0,0,0,0,0,0,0,0],"id":2,"left_children":[1,3,5,7,9,11,13,15,17,19,21,23,25,27,29,31,-1,33,35,37,-1,39,41,43,45,47,49,51,53,55,57,59,-1,61,-1,63,-1,65,-1,67,69,71,73,75,77,79,81,83,85,87,89,91,93,95,97,99,101,103,105,-1,-1,-1,-1,-1,-1,-1,-1,-1,-1,-1,-1,-1,-1,-1,-1,-1,-1,-1,-1,-1,-1,-1,-1,-1,-1,-1,-1,-1,-1,-1,-1,-1,-1,-1,-1,-1,-1,-1,-1,-1,-1,-1,-1,-1,-1,-1,-1],"loss_changes":[9.873898E4,2.4596094E3,5.2008945E3,2.2931165E2,1.0550391E3,3.9716797E2,3.1352495E3,6.3657E1,5.5008545E1,1.1047266E2,1.2924999E3,9.0425977E2,1.2592969E2,1.862125E3,1.0949995E3,1.2747025E1,0E0,8.803955E0,8.955025E1,4.1734375E1,0E0,8.4220776E2,1.1118747E2,3.631299E1,1.3205214E3,4.2920605E2,5.6835938E0,1.5409911E3,5.8336707E2,3.271338E2,1.1007368E3,4.2881775E-1,0E0,9.196163E0,0E0,8.9232155E1,0E0,3.6816406E1,0E0,3.9602808E2,2.1063751E1,1.0212048E2,6.8911995E1,1.03351776E2,1.3701172E0,2.0386694E2,6.0545764E2,2.593833E2,3.7527475E2,3.4598145E1,6.855469E-1,7.962129E2,9.2151514E2,4.201892E1,3.8630548E2,2.3550781E2,5.491919E2,5.7085077E2,5.9493176E2,0E0,0E0,0E0,0E0,0E0,0E0,0E0,0E0,0E0,0E0,0E0,0E0,0E0,0E0,0E0,0E0,0E0,0E0,0E0,0E0,0E0,0E0,0E0,0E0,0E0,0E0,0E0,0E0,0E0,0E0,0E0,0E0,0E0,0E0,0E0,0E0,0E0,0E0,0E0,0E0,0E0,0E0,0E0,0E0,0E0,0E0,0E0,0E0],"parents":[2147483647,0,0,1,1,2,2,3,3,4,4,5,5,6,6,7,7,8,8,9,9,10,10,11,11,12,12,13,13,14,14,15,15,17,17,18,18,19,19,21,21,22,22,23,23,24,24,25,25,26,26,27,27,28,28,29,29,30,30,31,31,33,33,35,35,37,37,39,39,40,40,41,41,42,42,43,43,44,44,45,45,46,46,47,47,48,48,49,49,50,50,51,51,52,52,53,53,54,54,55,55,56,56,57,57,58,58],"right_children":[2,4,6,8,10,12,14,16,18,20,22,24,26,28,30,32,-1,34,36,38,-1,40,42,44,46,48,50,52,54,56,58,60,-1,62,-1,64,-1,66,-1,68,70,72,74,76,78,80,82,84,86,88,90,92,94,96,98,100,102,104,106,-1,-1,-1,-1,-1,-1,-1,-1,-1,-1,-1,-1,-1,-1,-1,-1,-1,-1,-1,-1,-1,-1,-1,-1,-1,-1,-1,-1,-1,-1,-1,-1,-1,-1,-1,-1,-1,-1,-1,-1,-1,-1,-1,-1,-1,-1,-1,-1],"split_conditions":[-1.82915E0,-2.0000224E-1,7.038284E-1,-2.120584E0,-1.2905811E0,-5.697011E-1,-3.664611E-1,-2.1828804E0,-1.9141952E0,5.770423E-1,5.1435006E-1,-1.7488364E-2,-1.1047943E0,1.2386904E0,1.6121192E0,1.9186655E-1,-3.7144443E-1,-2.0498838E0,-1.2188401E0,-1.7105295E-1,-4.673476E-1,4.750198E-1,-2.0452745E0,-1.5493888E0,3.0441257E-1,7.4153143E-1,-2.3230848E-1,3.7131733E-1,4.3540668E-1,1.0565227E0,-3.2328373E-1,7.297769E-1,-2.7702105E-1,2.1440692E0,-4.0527627E-1,-1.266239E-1,-4.1723377E-1,-6.943626E-1,-5.589015E-1,-3.9272958E-1,-6.9680114E0,-3.6300988E0,1.7680628E0,1.79573E0,1.6823678E0,2.2708595E-2,-5.216844E-1,6.0228354E-1,9.8012453E-1,4.8627007E-1,-1.7488364E-2,2.8975302E-1,-2.9112318E0,-4.978492E-1,-1.2942791E0,1.4223449E-2,1.5819337E0,2.399518E-1,-4.525851E-1,3.9769247E-1,8.45854E-2,-3.23459E-1,3.0048534E-1,3.9172083E-1,-4.0011233E-1,-4.274888E-1,4.0254715E-1,-4.3254212E-1,3.4387773E-1,2.9889783E-1,-4.6022224E-1,3.1695145E-1,-4.6062383E-1,-2.73259E-1,3.7362736E-1,-3.9314136E-1,-3.5843607E-3,-4.0418005E-1,-3.3706188E-1,-3.969678E-1,-1.4246865E-1,-3.9961222E-1,3.2850903E-1,-3.832347E-1,3.2833256E-2,-4.0643787E-1,5.173407E-1,-4.0198225E-1,-3.130905E-1,-4.035317E-1,-4.1151932E-1,2.805612E-1,-3.352142E-1,2.9978406E-1,-4.2040718E-1,-1.7344816E-1,-4.3119523E-1,5.422774E-1,-4.825145E-1,-2.514568E-1,-3.9487895E-1,-2.4114688E-1,5.8393854E-1,2.1139333E-1,-2.4751857E-1,-1.1835245E-2,-3.2996383E-1],"split_indices":[14,4,4,10,12,14,14,3,14,10,15,4,13,3,4,16,0,10,3,3,0,26,14,14,25,21,14,0,21,7,29,19,0,7,0,26,0,11,0,21,7,7,7,1,11,25,1,23,5,25,4,8,1,6,13,14,15,8,16,0,0,0,0,0,0,0,0,0,0,0,0,0,0,0,0,0,0,0,0,0,0,0,0,0,0,0,0,0,0,0,0,0,0,0,0,0,0,0,0,0,0,0,0,0,0,0,0],"split_type":[0,0,0,0,0,0,0,0,0,0,0,0,0,0,0,0,0,0,0,0,0,0,0,0,0,0,0,0,0,0,0,0,0,0,0,0,0,0,0,0,0,0,0,0,0,0,0,0,0,0,0,0,0,0,0,0,0,0,0,0,0,0,0,0,0,0,0,0,0,0,0,0,0,0,0,0,0,0,0,0,0,0,0,0,0,0,0,0,0,0,0,0,0,0,0,0,0,0,0,0,0,0,0,0,0,0,0],"sum_hessian":[7.8219586E4,3.487922E4,4.3340363E4,5.3216455E2,3.4347055E4,2.863885E4,1.4701515E4,7.0408066E1,4.6175647E2,3.1388582E4,2.9584722E3,5.715584E3,2.2923266E4,4.8068047E3,9.89471E3,5.8474815E1,1.1933249E1,3.5111758E2,1.106389E2,3.1376217E4,1.2365188E1,2.622221E3,3.3625128E2,3.704794E3,2.01079E3,3.2368618E3,1.9686402E4,3.7860417E3,1.02076294E3,5.96102E3,3.9336897E3,5.6482304E1,1.9925138E0,6.6088815E0,3.445087E2,5.4578445E1,5.6060455E1,3.1372977E4,3.240671E0,2.487487E3,1.3473389E2,2.7889825E2,5.7353027E1,3.2631293E2,3.378481E3,1.3273397E3,6.834504E2,3.0754675E3,1.6139423E2,4.089863E3,1.559654E4,2.9733975E3,8.126443E2,8.6860065E2,1.5216226E2,5.388085E3,5.729352E2,1.2931948E3,2.6404949E3,5.546567E1,1.0166308E0,3.7300403E0,2.8788412E0,3.591196E1,1.8666483E1,4.044433E0,3.1368932E4,5.9784885E1,2.4277021E3,2.7291064E0,1.3200479E2,1.5450316E1,2.6344794E2,2.955914E1,2.7793888E1,2.4461102E2,8.17019E1,3.3148213E3,6.3659645E1,9.149372E2,4.1240253E2,1.2502435E2,5.58426E2,2.9342812E3,1.4118642E2,6.6414474E1,9.4979744E1,3.6241243E3,4.6573886E2,1.0121181E4,5.4753594E3,2.771415E3,2.0198251E2,2.1772636E2,5.9491797E2,6.3222527E1,8.053781E2,1.0490149E2,4.726077E1,1.3995658E3,3.9885193E3,4.8866125E2,8.4273895E1,9.680922E2,3.2510257E2,7.3191754E2,1.9085773E3],"tree_param":{"num_deleted":"0","num_feature":"30","num_nodes":"107","size_leaf_vector":"1"}},{"base_weights":[4.4572036E-4,1.1888314E0,-8.392463E-1,1.1993257E0,-1.3553717E0,-1.1036958E0,-3.6907044E-1,1.2053982E0,-1.30331E0,-3.622255E-1,-4.4299534E-1,-5.137431E-1,-1.1497543E0,1.4471708E-1,-7.527697E-1,1.2258482E0,8.2277465E-1,2.900692E-1,-1.4477618E0,1.3639638E-3,-1.1740417E0,-1.2033114E0,-9.4550276E-1,5.925045E-1,-4.171558E-1,-4.4934434E-1,-1.1153611E0,1.226247E0,-6.608083E-1,-7.3669064E-1,9.711672E-1,-4.136983E-1,-6.681252E-1,5.8441E-1,-8.25923E-1,-1.2372274E0,-8.3786085E-2,-1.2275121E0,-1.1004179E0,-1.0930307E0,-1.4444652E-1,-1.2771043E0,8.044695E-1,1.5722098E0,-5.925605E-1,-1.2376261E-1,-1.0222504E0,4.0900072E-1,-1.1739625E0,3.6799976E-1,-5.363973E-1,3.5017818E-1,-4.5710883E-1,-4.2040738E-1,3.0916083E-1,-3.331161E-1,2.657528E-1,-3.6238337E-1,-6.779037E-2,-3.809627E-1,-2.595351E-1,4.205676E-1,-4.467931E-1,-3.6897984E-1,-2.4251153E-1,-1.6086608E-1,-3.5461107E-1,-3.5005897E-1,-1.4886597E-1,-3.513323E-1,3.1189007E-1,-6.9051413E-3,-4.1974095E-1,2.7179748E-1,-4.4887495E-1,5.555378E-1,-3.5179833E-1,1.9464159E-1,-2.3927519E-1,-2.7960944E-1,1.2179788E-1,-3.9644325E-1,6.368681E-2,-4.2678547E-1,4.0458497E-1,-3.5809964E-1,2.7085385E-1],"categories":[],"categories_nodes":[],"categories_segments":[],"categories_sizes":[],"default_left":[0,0,0,0,0,0,0,0,0,0,0,0,0,0,0,0,0,0,0,0,0,0,0,0,0,0,0,0,0,0,0,0,0,0,0,0,0,0,0,0,0,0,0,0,0,0,0,0,0,0,0,0,0,0,0,0,0,0,0,0,0,0,0,0,0,0,0,0,0,0,0,0,0,0,0,0,0,0,0,0,0,0,0,0,0,0,0],"id":3,"left_children":[1,3,5,7,9,11,13,15,17,-1,-1,19,21,23,25,27,29,-1,31,33,35,37,39,41,43,45,47,49,-1,51,53,-1,-1,55,57,59,61,63,65,67,69,71,73,75,77,79,81,83,85,-1,-1,-1,-1,-1,-1,-1,-1,-1,-1,-1,-1,-1,-1,-1,-1,-1,-1,-1,-1,-1,-1,-1,-1,-1,-1,-1,-1,-1,-1,-1,-1,-1,-1,-1,-1,-1,-1],"loss_changes":[6.4322316E4,7.141875E2,4.6959395E3,4.055078E2,1.9265747E-1,6.562637E2,2.6808599E3,2.0646484E2,2.2655663E1,0E0,0E0,5.9603986E2,2.4414453E2,1.4631569E3,8.559761E2,3.7101562E1,3.127306E2,0E0,2.1621704E-1,4.7580505E2,5.280078E1,4.2875E1,5.508662E2,1.2834777E3,9.0096545E2,7.907228E2,3.1723682E2,3.3972656E1,0E0,1.7817293E2,1.7491772E2,0E0,0E0,2.965883E2,9.319409E1,7.7196045E0,9.217574E1,1.35859375E1,1.5554395E2,1.7291748E2,8.8415485E2,5.0458313E1,6.804038E2,1.6276697E2,6.0396857E2,1.1584503E3,5.677793E2,2.2911388E2,1.4081348E2,0E0,0E0,0E0,0E0,0E0,0E0,0E0,0E0,0E0,0E0,0E0,0E0,0E0,0E0,0E0,0E0,0E0,0E0,0E0,0E0,0E0,0E0,0E0,0E0,0E0,0E0,0E0,0E0,0E0,0E0,0E0,0E0,0E0,0E0,0E0,0E0,0E0,0E0],"parents":[2147483647,0,0,1,1,2,2,3,3,4,4,5,5,6,6,7,7,8,8,11,11,12,12,13,13,14,14,15,15,16,16,18,18,19,19,20,20,21,21,22,22,23,23,24,24,25,25,26,26,27,27,29,29,30,30,33,33,34,34,35,35,36,36,37,37,38,38,39,39,40,40,41,41,42,42,43,43,44,44,45,45,46,46,47,47,48,48],"right_children":[2,4,6,8,10,12,14,16,18,-1,-1,20,22,24,26,28,30,-1,32,34,36,38,40,42,44,46,48,50,-1,52,54,-1,-1,56,58,60,62,64,66,68,70,72,74,76,78,80,82,84,86,-1,-1,-1,-1,-1,-1,-1,-1,-1,-1,-1,-1,-1,-1,-1,-1,-1,-1,-1,-1,-1,-1,-1,-1,-1,-1,-1,-1,-1,-1,-1,-1,-1,-1,-1,-1,-1,-1],"split_conditions":[-2.5364108E0,5.770423E-1,7.289192E-1,3.0446228E-1,-1.7115287E-1,-1.29931E0,-1.9407555E-1,-3.5863593E0,-4.610082E0,-3.622255E-1,-4.4299534E-1,-7.460515E-1,3.1089818E-1,2.6003709E-2,3.8001467E-2,2.1440692E0,-3.45933E-1,2.900692E-1,2.0052378E0,-1.179314E-1,6.130413E-1,-1.7488364E-2,7.472874E-1,-1.0857408E0,-2.6135662E0,3.6761957E-1,-3.5057622E-1,1.9550409E0,-6.608083E-1,-6.5689344E0,5.0565165E-1,-4.136983E-1,-6.681252E-1,-2.902171E-1,-3.0361898E-3,1.3721513E0,-9.652684E-1,1.8130744E0,-7.850823E-1,4.5463923E-1,9.305521E-2,-7.741074E-1,1.7825878E0,-5.435218E-1,-1.651199E0,1.9292055E-1,2.0849578E-1,1.0886951E-1,5.9569645E0,3.6799976E-1,-5.363973E-1,3.5017818E-1,-4.5710883E-1,-4.2040738E-1,3.0916083E-1,-3.331161E-1,2.657528E-1,-3.6238337E-1,-6.779037E-2,-3.809627E-1,-2.595351E-1,4.205676E-1,-4.467931E-1,-3.6897984E-1,-2.4251153E-1,-1.6086608E-1,-3.5461107E-1,-3.5005897E-1,-1.4886597E-1,-3.513323E-1,3.1189007E-1,-6.9051413E-3,-4.1974095E-1,2.7179748E-1,-4.4887495E-1,5.555378E-1,-3.5179833E-1,1.9464159E-1,-2.3927519E-1,-2.7960944E-1,1.2179788E-1,-3.9644325E-1,6.368681E-2,-4.2678547E-1,4.0458497E-1,-3.5809964E-1,2.7085385E-1],"split_indices":[14,10,4,12,4,14,12,14,14,0,0,3,4,14,14,7,29,0,4,26,4,4,7,11,7,9,29,1,0,7,4,0,0,26,28,17,19,22,15,25,16,8,3,16,19,25,5,28,4,0,0,0,0,0,0,0,0,0,0,0,0,0,0,0,0,0,0,0,0,0,0,0,0,0,0,0,0,0,0,0,0,0,0,0,0,0,0],"split_type":[0,0,0,0,0,0,0,0,0,0,0,0,0,0,0,0,0,0,0,0,0,0,0,0,0,0,0,0,0,0,0,0,0,0,0,0,0,0,0,0,0,0,0,0,0,0,0,0,0,0,0,0,0,0,0,0,0,0,0,0,0,0,0,0,0,0,0,0,0,0,0,0,0,0,0,0,0,0,0,0,0,0,0,0,0,0,0],"sum_hessian":[6.4457105E4,2.6687225E4,3.776988E4,2.6578125E4,1.0909977E2,2.4172664E4,1.3597216E4,2.6514307E4,6.381722E1,5.4080517E1,5.5019253E1,1.7514117E3,2.2421252E4,5.813435E3,7.783781E3,2.5167002E4,1.3473044E3,3.4771187E0,6.03401E1,9.8443774E2,7.66974E2,1.7759592E4,4.66166E3,3.2351284E3,2.5783064E3,4.2388477E3,3.544933E3,2.5164719E4,2.2837455E0,1.1672026E2,1.2305842E3,5.799233E1,2.3477724E0,5.7763336E2,4.0680438E2,7.248317E2,4.2142307E1,1.436904E4,3.3905518E3,3.9363508E3,7.2530945E2,3.2891885E2,2.9062097E3,2.0826703E2,2.3700393E3,2.7036074E3,1.5352402E3,1.3101216E2,3.413921E3,2.5161814E4,2.9045033E0,3.3995056E1,8.2725204E1,2.9489912E1,1.2010944E3,8.681795E1,4.9081543E2,2.4792484E2,1.5887956E2,6.641479E2,6.068379E1,2.0488245E1,2.165406E1,1.4284607E4,8.4432724E1,4.2945868E2,2.9610933E3,3.5021396E3,4.3421118E2,3.8848392E2,3.3682553E2,2.9273434E1,2.9964542E2,2.7839697E3,1.2223989E2,1.8930995E2,1.895708E1,3.3564258E2,2.0343967E3,1.0701215E3,1.6334858E3,1.2356691E3,2.9957108E2,4.4246735E1,8.676543E1,3.3822583E3,3.166263E1],"tree_param":{"num_deleted":"0","num_feature":"30","num_nodes":"87","size_leaf_vector":"1"}},{"base_weights":[4.7773027E-4,1.1219918E0,-7.336764E-1,1.1303191E0,-3.682794E-1,-1.0162323E0,-2.9974478E-1,1.1346041E0,-3.8498834E-1,-7.150438E-1,-1.1096675E0,6.26358E-2,-6.6554326E-1,1.1558695E0,8.0025464E-1,-1.0752239E0,-2.2185098E-1,-8.730924E-1,-1.151745E0,2.3781165E-1,-8.203102E-1,-2.3022343E-1,-9.903475E-1,1.1561651E0,-4.6145734E-1,9.67208E-1,-1.2246412E0,-3.4983853E-1,-6.522771E-1,-1.1169034E0,2.7072456E-1,-9.8900086E-1,5.0623E-1,-1.0976801E0,-1.165973E0,4.9078694E-1,-6.667953E-1,9.8594546E-1,-1.0694247E0,-1.127168E0,1.9017038E-1,7.4220896E-1,-1.041465E0,1.198922E-1,3.4705096E-1,3.0063784E-1,-7.0641655E-1,3.159854E-1,-4.3584058E-1,-3.6415625E-1,-3.293177E-2,-3.4279656E-1,2.3171549E-1,-3.9136797E-1,1.5687507E-1,-3.2893762E-1,8.9962047E-4,-3.4644368E-1,4.65186E-1,-3.445551E-1,-2.2059107E-1,-3.503656E-1,-3.285628E-1,2.3934104E-1,-6.0265515E-2,-4.5121133E-1,-1.69218E-2,-4.194439E-1,4.8196676E-1,9.274362E-2,-3.5474658E-1,-1.4584498E-1,-3.6931223E-1,1.8795916E-1,-2.1265168E-1,-4.1400382E-1,3.6493024E-1,1.0195638E-1,-3.3367744E-1],"categories":[],"categories_nodes":[],"categories_segments":[],"categories_sizes":[],"default_left":[0,0,0,0,0,0,0,0,0,0,0,0,0,0,0,0,0,0,0,0,0,0,0,0,0,0,0,0,0,0,0,0,0,0,0,0,0,0,0,0,0,0,0,0,0,0,0,0,0,0,0,0,0,0,0,0,0,0,0,0,0,0,0,0,0,0,0,0,0,0,0,0,0,0,0,0,0,0,0],"id":4,"left_children":[1,3,5,7,-1,9,11,13,-1,15,17,19,21,23,25,27,29,31,33,35,37,39,41,43,-1,45,47,-1,49,51,53,55,57,59,61,63,65,67,69,71,73,75,77,-1,-1,-1,-1,-1,-1,-1,-1,-1,-1,-1,-1,-1,-1,-1,-1,-1,-1,-1,-1,-1,-1,-1,-1,-1,-1,-1,-1,-1,-1,-1,-1,-1,-1,-1,-1],"loss_changes":[4.3102375E4,4.0661328E2,3.8788691E3,2.149043E2,0E0,5.384258E2,1.6541567E3,1.4555469E2,0E0,8.0616064E2,1.4455273E2,9.69888E2,8.778269E2,1.7208984E1,4.187705E2,1.00099365E2,8.4558374E2,3.5416968E2,8.267578E0,1.1976926E3,4.681834E2,1.0012831E3,3.1571924E2,9.373047E0,0E0,1.3479199E2,5.0660034E1,0E0,1.4194498E2,3.4003906E1,4.9230133E2,2.1757117E2,3.0042395E2,4.7104248E1,4.7851562E-2,8.6856E2,5.8448193E2,1.89186E2,1.426405E2,5.5823364E1,7.0989935E2,1.0483349E2,3.381997E2,0E0,0E0,0E0,0E0,0E0,0E0,0E0,0E0,0E0,0E0,0E0,0E0,0E0,0E0,0E0,0E0,0E0,0E0,0E0,0E0,0E0,0E0,0E0,0E0,0E0,0E0,0E0,0E0,0E0,0E0,0E0,0E0,0E0,0E0,0E0,0E0],"parents":[2147483647,0,0,1,1,2,2,3,3,5,5,6,6,7,7,9,9,10,10,11,11,12,12,13,13,14,14,15,15,16,16,17,17,18,18,19,19,20,20,21,21,22,22,23,23,25,25,26,26,28,28,29,29,30,30,31,31,32,32,33,33,34,34,35,35,36,36,37,37,38,38,39,39,40,40,41,41,42,42],"right_children":[2,4,6,8,-1,10,12,14,-1,16,18,20,22,24,26,28,30,32,34,36,38,40,42,44,-1,46,48,-1,50,52,54,56,58,60,62,64,66,68,70,72,74,76,78,-1,-1,-1,-1,-1,-1,-1,-1,-1,-1,-1,-1,-1,-1,-1,-1,-1,-1,-1,-1,-1,-1,-1,-1,-1,-1,-1,-1,-1,-1,-1,-1,-1,-1,-1,-1],"split_conditions":[-2.7156987E0,5.770423E-1,7.038284E-1,3.1820083E-1,-3.682794E-1,-5.697011E-1,-4.3618947E-2,-1.3808419E0,-3.8498834E-1,-6.8893656E-2,-1.0901793E0,1.2671018E0,-4.7976185E-2,2.1440692E0,5.232978E-1,1.0345346E0,5.585809E-3,5.9355074E-1,-2.3230848E-1,1.1467606E0,-1.9881392E0,1.7624237E-1,-2.2079127E0,2.9507387E-1,-4.6145734E-1,6.862323E-1,-4.446247E0,-3.4983853E-1,3.110531E-2,1.6013583E0,-1.6596058E-2,4.0121424E-1,1.0293348E0,4.8627007E-1,6.357833E-1,2.7453122E-1,2.9603264E-1,1.02722004E-1,-6.2427217E-1,-1.0160513E0,1.8261419E-1,1.4090521E0,-1.5585183E0,1.198922E-1,3.4705096E-1,3.0063784E-1,-7.0641655E-1,3.159854E-1,-4.3584058E-1,-3.6415625E-1,-3.293177E-2,-3.4279656E-1,2.3171549E-1,-3.9136797E-1,1.5687507E-1,-3.2893762E-1,8.9962047E-4,-3.4644368E-1,4.65186E-1,-3.445551E-1,-2.2059107E-1,-3.503656E-1,-3.285628E-1,2.3934104E-1,-6.0265515E-2,-4.5121133E-1,-1.69218E-2,-4.194439E-1,4.8196676E-1,9.274362E-2,-3.5474658E-1,-1.4584498E-1,-3.6931223E-1,1.8795916E-1,-2.1265168E-1,-4.1400382E-1,3.6493024E-1,1.0195638E-1,-3.3367744E-1],"split_indices":[14,10,4,12,0,14,12,12,0,4,13,3,21,7,15,17,25,21,14,1,19,25,14,11,0,13,8,0,18,21,18,23,5,25,4,14,5,17,20,19,9,16,13,0,0,0,0,0,0,0,0,0,0,0,0,0,0,0,0,0,0,0,0,0,0,0,0,0,0,0,0,0,0,0,0,0,0,0,0],"split_type":[0,0,0,0,0,0,0,0,0,0,0,0,0,0,0,0,0,0,0,0,0,0,0,0,0,0,0,0,0,0,0,0,0,0,0,0,0,0,0,0,0,0,0,0,0,0,0,0,0,0,0,0,0,0,0,0,0,0,0,0,0,0,0,0,0,0,0,0,0,0,0,0,0,0,0,0,0,0,0],"sum_hessian":[5.2347105E4,2.0709768E4,3.1637338E4,2.0637145E4,7.262269E1,1.915994E4,1.2477398E4,2.06011E4,3.6044453E1,4.5385576E3,1.4621383E4,6.2683984E3,6.209E3,1.936687E4,1.2342305E3,2.6223025E3,1.9162551E3,2.2111577E3,1.2410225E4,5.2312524E3,1.0371461E3,2.653862E3,3.5551382E3,1.9365314E4,1.5544806E0,1.1407015E3,9.3528915E1,2.1569495E3,4.6535303E2,6.797759E2,1.2364792E3,2.0400126E3,1.7114517E2,2.6018047E3,9.80842E3,4.0883843E3,1.1428679E3,1.253455E2,9.118006E2,8.463736E2,1.8074885E3,1.0149769E2,3.4536404E3,1.7699734E1,1.9347615E4,1.129527E3,1.1174568E1,8.18587E0,8.534305E1,2.2804909E2,2.3730394E2,6.710248E2,8.751131E0,1.7005867E2,1.0664207E3,1.8405326E3,1.994799E2,6.6027115E1,1.0511806E2,2.2798071E3,3.2199762E2,9.53523E3,2.7318945E2,2.8314285E3,1.2569559E3,4.8126932E2,6.6159863E2,2.5630888E1,9.971461E1,6.8981766E1,8.4281885E2,1.1881621E2,7.275574E2,1.2170576E3,5.904309E2,1.818908E1,8.330861E1,1.6818568E2,3.2854546E3],"tree_param":{"num_deleted":"0","num_feature":"30","num_nodes":"79","size_leaf_vector":"1"}},{"base_weights":[-4.935227E-4,1.0703452E0,-6.473937E-1,1.1068954E0,5.5357933E-1,-1.0147798E0,-3.2055998E-1,-1.2843609E0,1.1081079E0,-5.847732E-1,9.516079E-1,-4.1701278E-1,-1.0488058E0,6.1666127E-2,-5.7375705E-1,7.0450805E-2,-4.7240168E-1,1.1085042E0,-4.5917502E-1,-1.314967E0,1.0939846E0,9.9165905E-1,-1.9984028E0,-1.217539E0,7.244357E-2,-1.1076325E0,-8.678472E-1,-1.1952157E0,2.0494404E-1,-8.4304696E-1,-1.9148073E-1,1.1086897E0,-2.1822387E-1,-1.2145755E0,-1.4231801E0,3.4093547E-1,-3.557986E-1,1.0125511E0,-2.7087915E0,2.4215285E-2,-2.6055977E0,-3.407836E-1,-1.4548444E0,6.792131E-1,-8.468553E-1,-1.1117462E0,-7.704467E-1,-2.6659867E-1,-9.9132395E-1,-1.2349399E0,-3.1571642E-1,4.618976E-1,-4.464496E-1,-9.4127464E-1,-1.7916058E-1,1.3369374E-1,-8.908421E-1,3.3315763E-1,3.0041447E-1,-9.642413E-2,-3.662092E-1,-4.6938965E-1,-3.7224248E-1,3.0862775E-1,-8.4928757E-1,-9.7445875E-1,-1.8618463E-1,-1.8170452E-1,1.9020288E-1,-1.1788386E0,-5.508216E-1,-4.683494E-1,-3.3400756E-1,-3.793938E-1,3.0987468E-1,-3.0634052E-1,1.989301E-1,-3.3439913E-1,-3.1432E-1,-3.401534E-1,2.3622192E-1,-2.3115422E-1,2.9388666E-1,-3.1511194E-1,4.79339E-2,-3.7886646E-1,-1.4166895E-1,-3.955461E-1,3.2988927E-1,1.6426389E-1,-5.537054E-1,-2.5873196E-1,1.3975622E-1,4.2321226E-1,-2.8822884E-1,-2.6776055E-1,3.8606343E-1,-1.6089194E-1,1.5405828E-1,-3.7071964E-1,3.787514E-2],"categories":[],"categories_nodes":[],"categories_segments":[],"categories_sizes":[],"default_left":[0,0,0,0,0,0,0,0,0,0,0,0,0,0,0,0,0,0,0,0,0,0,0,0,0,0,0,0,0,0,0,0,0,0,0,0,0,0,0,0,0,0,0,0,0,0,0,0,0,0,0,0,0,0,0,0,0,0,0,0,0,0,0,0,0,0,0,0,0,0,0,0,0,0,0,0,0,0,0,0,0,0,0,0,0,0,0,0,0,0,0,0,0,0,0,0,0,0,0,0,0],"id":5,"left_children":[1,3,5,7,9,11,13,15,17,19,21,23,25,27,29,-1,-1,31,-1,33,35,37,39,41,43,45,47,49,51,53,55,57,-1,59,61,-1,-1,63,65,67,69,-1,71,73,75,77,79,81,83,85,87,89,91,93,95,97,99,-1,-1,-1,-1,-1,-1,-1,-1,-1,-1,-1,-1,-1,-1,-1,-1,-1,-1,-1,-1,-1,-1,-1,-1,-1,-1,-1,-1,-1,-1,-1,-1,-1,-1,-1,-1,-1,-1,-1,-1,-1,-1,-1,-1],"loss_changes":[2.9369445E4,3.0096484E2,3.1732656E3,4.4658203E1,4.7934668E2,2.5264453E2,1.3538259E3,3.907034E0,1.7279297E1,3.377775E2,9.45329E1,2.6330594E2,1.24353516E2,1.0041949E3,8.6606616E2,0E0,0E0,5.8808594E0,0E0,3.5360718E-1,9.453392E0,6.2542114E1,1.3356461E1,3.283844E0,2.3364177E2,1.14609375E1,2.144856E2,1.9546326E1,8.379814E2,3.2175708E2,7.912999E2,1.8242188E0,0E0,1.8859863E-1,2.878723E-1,0E0,0E0,5.0873535E1,3.1818848E0,1.7245297E0,1.2756348E0,0E0,5.008545E-1,1.7474316E2,4.4512222E1,4.7070312E-1,6.3330246E1,3.1111224E2,1.6326147E2,1.1034302E1,3.8355194E1,7.105199E2,5.379414E2,1.9845312E2,6.6787384E2,6.048636E2,3.8753802E2,0E0,0E0,0E0,0E0,0E0,0E0,0E0,0E0,0E0,0E0,0E0,0E0,0E0,0E0,0E0,0E0,0E0,0E0,0E0,0E0,0E0,0E0,0E0,0E0,0E0,0E0,0E0,0E0,0E0,0E0,0E0,0E0,0E0,0E0,0E0,0E0,0E0,0E0,0E0,0E0,0E0,0E0,0E0,0E0],"parents":[2147483647,0,0,1,1,2,2,3,3,4,4,5,5,6,6,7,7,8,8,9,9,10,10,11,11,12,12,13,13,14,14,17,17,19,19,20,20,21,21,22,22,23,23,24,24,25,25,26,26,27,27,28,28,29,29,30,30,31,31,33,33,34,34,37,37,38,38,39,39,40,40,42,42,43,43,44,44,45,45,46,46,47,47,48,48,49,49,50,50,51,51,52,52,53,53,54,54,55,55,56,56],"right_children":[2,4,6,8,10,12,14,16,18,20,22,24,26,28,30,-1,-1,32,-1,34,36,38,40,42,44,46,48,50,52,54,56,58,-1,60,62,-1,-1,64,66,68,70,-1,72,74,76,78,80,82,84,86,88,90,92,94,96,98,100,-1,-1,-1,-1,-1,-1,-1,-1,-1,-1,-1,-1,-1,-1,-1,-1,-1,-1,-1,-1,-1,-1,-1,-1,-1,-1,-1,-1,-1,-1,-1,-1,-1,-1,-1,-1,-1,-1,-1,-1,-1,-1,-1,-1],"split_conditions":[-2.7156987E0,-1.8989291E0,3.835063E-1,2.9507387E-1,1.8932652E0,-1.5493888E0,-3.3405107E-1,4.1700563E-1,2.1440692E0,3.7314951E0,9.07286E-1,-4.2903903E-1,-1.7488364E-2,-1.0352575E0,1.4620427E0,7.0450805E-2,-4.7240168E-1,-1.7105295E-1,-4.5917502E-1,9.02094E-1,-3.6670044E-1,-4.281593E-1,-2.1690893E0,-1.42934E-1,-1.179314E-1,1.6297259E0,-6.3702583E-1,1.3177845E0,3.9624992E-1,5.0003564E-1,3.4839725E-1,7.674305E-1,-2.1822387E-1,-1.290741E0,5.1435006E-1,3.4093547E-1,-3.557986E-1,1.923608E0,8.957191E-2,-1.3755381E1,-1.7836455E0,-3.407836E-1,-1.82915E0,-1.9284138E-1,9.115516E-1,-9.448882E-2,1.0440905E0,4.242056E-1,5.53057E-1,-1.060274E0,6.0344416E-1,6.846796E-1,1.7038567E0,-4.006244E0,9.4184196E-1,-3.2092296E-2,1.14870384E-1,3.3315763E-1,3.0041447E-1,-9.642413E-2,-3.662092E-1,-4.6938965E-1,-3.7224248E-1,3.0862775E-1,-8.4928757E-1,-9.7445875E-1,-1.8618463E-1,-1.8170452E-1,1.9020288E-1,-1.1788386E0,-5.508216E-1,-4.683494E-1,-3.3400756E-1,-3.793938E-1,3.0987468E-1,-3.0634052E-1,1.989301E-1,-3.3439913E-1,-3.1432E-1,-3.401534E-1,2.3622192E-1,-2.3115422E-1,2.9388666E-1,-3.1511194E-1,4.79339E-2,-3.7886646E-1,-1.4166895E-1,-3.955461E-1,3.2988927E-1,1.6426389E-1,-5.537054E-1,-2.5873196E-1,1.3975622E-1,4.2321226E-1,-2.8822884E-1,-2.6776055E-1,3.8606343E-1,-1.6089194E-1,1.5405828E-1,-3.7071964E-1,3.787514E-2],"split_indices":[14,10,4,11,4,14,14,7,7,21,13,1,4,11,4,0,0,3,0,16,15,3,8,4,26,22,14,17,0,29,16,7,0,11,15,0,0,1,10,1,12,0,14,25,12,4,21,25,21,11,21,25,4,23,3,23,17,0,0,0,0,0,0,0,0,0,0,0,0,0,0,0,0,0,0,0,0,0,0,0,0,0,0,0,0,0,0,0,0,0,0,0,0,0,0,0,0,0,0,0,0],"split_type":[0,0,0,0,0,0,0,0,0,0,0,0,0,0,0,0,0,0,0,0,0,0,0,0,0,0,0,0,0,0,0,0,0,0,0,0,0,0,0,0,0,0,0,0,0,0,0,0,0,0,0,0,0,0,0,0,0,0,0,0,0,0,0,0,0,0,0,0,0,0,0,0,0,0,0,0,0,0,0,0,0,0,0,0,0,0,0,0,0,0,0,0,0,0,0,0,0,0,0,0,0],"sum_hessian":[4.239493E4,1.5965677E4,2.6429252E4,1.4909971E4,1.0557062E3,1.2441713E4,1.3987539E4,7.020231E0,1.490295E4,2.7337906E2,7.823271E2,6.707778E2,1.1770935E4,5.5739165E3,8.413622E3,1.1569598E0,5.863271E0,1.4901293E4,1.6579016E0,1.9066428E2,8.271478E1,7.72503E2,9.824129E0,2.5394789E2,4.168299E2,8.879296E3,2.8916384E3,5.6962585E2,5.0042905E3,4.935596E3,3.4780261E3,1.4900184E4,1.1094053E0,1.0524776E2,8.541652E1,8.1694695E1,1.0200919E0,7.6888837E2,3.6146135E0,2.4899647E0,7.3341646E0,1.9327888E2,6.066901E1,2.5125435E2,1.6557553E2,8.770006E3,1.09290054E2,4.9320773E2,2.3984307E3,5.446228E2,2.5003075E1,3.5888835E3,1.4154069E3,4.299091E3,6.365054E2,2.3746975E3,1.1033285E3,1.4640386E4,2.5979703E2,1.0806694E0,1.0416708E2,4.383652E1,4.1579998E1,7.663888E2,2.4995391E0,2.4311078E0,1.1835059E0,1.2281111E0,1.2618535E0,1.1865413E0,6.1476235E0,4.3541008E1,1.7128004E1,3.8283344E1,2.1297101E2,1.487325E2,1.6843035E1,8.372013E3,3.9799316E2,8.883892E1,2.0451134E1,3.514706E2,1.417371E2,2.281483E3,1.1694762E2,5.2473883E2,1.9883995E1,1.4674593E1,1.0328482E1,3.4611804E3,1.2770308E2,9.721724E2,4.432344E2,3.4742172E1,4.2643486E3,4.2842496E2,2.0808044E2,8.5902527E2,1.5156722E3,8.23776E2,2.7955252E2],"tree_param":{"num_deleted":"0","num_feature":"30","num_nodes":"101","size_leaf_vector":"1"}},{"base_weights":[-1.2000122E-3,1.0345492E0,-5.6743497E-1,1.0729351E0,5.122173E-1,-9.629436E-1,-2.6410204E-1,-1.1087577E0,1.0742003E0,-5.405795E-1,8.851551E-1,-4.3013605E-1,-1.0033324E0,-1.1642134E-1,-8.0933183E-1,-4.1691315E-1,6.830008E-2,1.0746465E0,-3.7826928E-1,-1.2360972E0,1.0439509E0,9.467386E-1,-1.114045E0,4.3927323E-2,-1.104121E0,-1.0752115E0,-7.9576486E-1,-4.8902184E-1,1.762487E-1,-1.0840032E0,-1.8665294E-1,1.0773222E0,9.2490673E-1,-8.3509415E-2,-3.7224072E-1,3.270483E-1,-2.789324E-1,9.672654E-1,-5.7525784E-1,2.774187E-1,-2.005445E0,-3.7142488E-1,3.2949686E-1,-3.3711696E-1,-6.079231E-1,-3.2475317E-1,-8.364546E-1,-1.0883267E0,-4.8823234E-1,-2.6015785E-1,-1.0875692E0,-6.1461645E-1,4.0168956E-1,1.085269E0,-1.1804614E0,3.7975997E-1,-1.2172395E0,3.2322314E-1,7.0995145E-2,-8.1705993E-1,3.1756407E-1,2.976603E-1,-3.5083452E-1,-2.665289E-1,-6.730803E-1,1.897481E-1,-3.7544218E-1,-3.5021496E-1,2.9500416E-1,-3.2641068E-1,2.1983059E-1,2.7351394E-1,-3.2970402E-1,-2.9603484E-1,2.449982E-2,2.7559796E-2,-3.053962E-1,-3.5158995E-1,1.569597E-1,-2.8288114E-1,2.7519214E-1,1.912769E-1,-1.1565544E-1,3.4315208E-1,-5.003968E-1,-2.1123591E-1,-3.6128956E-1,2.5161916E-1,-4.6284705E-1,-1.4915322E-1,-3.7311286E-1],"categories":[],"categories_nodes":[],"categories_segments":[],"categories_sizes":[],"default_left":[0,0,0,0,0,0,0,0,0,0,0,0,0,0,0,0,0,0,0,0,0,0,0,0,0,0,0,0,0,0,0,0,0,0,0,0,0,0,0,0,0,0,0,0,0,0,0,0,0,0,0,0,0,0,0,0,0,0,0,0,0,0,0,0,0,0,0,0,0,0,0,0,0,0,0,0,0,0,0,0,0,0,0,0,0,0,0,0,0,0,0],"id":6,"left_children":[1,3,5,7,9,11,13,15,17,19,21,23,25,27,29,-1,-1,31,-1,33,35,37,39,41,43,45,47,49,51,53,55,57,59,-1,-1,-1,-1,61,-1,-1,63,-1,65,-1,67,-1,69,71,73,75,77,79,81,83,85,87,89,-1,-1,-1,-1,-1,-1,-1,-1,-1,-1,-1,-1,-1,-1,-1,-1,-1,-1,-1,-1,-1,-1,-1,-1,-1,-1,-1,-1,-1,-1,-1,-1,-1,-1],"loss_changes":[2.0200475E4,2.4354785E2,2.6714111E3,3.2493164E1,3.2846155E2,2.0756738E2,1.01483234E3,2.9689865E0,1.3165039E1,2.4278598E2,7.704611E1,2.1821518E2,1.3318164E2,1.0817855E3,4.5923718E2,0E0,0E0,3.5449219E0,0E0,3.4292603E-1,7.1596527E0,3.709131E1,3.6210423E1,1.4751584E2,2.059723E0,1.0718262E1,2.0772412E2,5.975327E2,9.909023E2,3.912749E2,4.8114362E2,5.6933594E-1,1.0333124E2,0E0,0E0,0E0,0E0,3.290033E1,0E0,0E0,1.5897713E0,0E0,1.5858856E2,0E0,1.2627971E1,0E0,8.0647705E1,2.6338257E1,3.212172E2,8.4263745E2,1.6467017E2,6.209771E2,8.032975E2,1.4787704E1,1.941919E1,4.708764E2,4.95282E0,0E0,0E0,0E0,0E0,0E0,0E0,0E0,0E0,0E0,0E0,0E0,0E0,0E0,0E0,0E0,0E0,0E0,0E0,0E0,0E0,0E0,0E0,0E0,0E0,0E0,0E0,0E0,0E0,0E0,0E0,0E0,0E0,0E0,0E0],"parents":[2147483647,0,0,1,1,2,2,3,3,4,4,5,5,6,6,7,7,8,8,9,9,10,10,11,11,12,12,13,13,14,14,17,17,19,19,20,20,21,21,22,22,23,23,24,24,25,25,26,26,27,27,28,28,29,29,30,30,31,31,32,32,37,37,40,40,42,42,44,44,46,46,47,47,48,48,49,49,50,50,51,51,52,52,53,53,54,54,55,55,56,56],"right_children":[2,4,6,8,10,12,14,16,18,20,22,24,26,28,30,-1,-1,32,-1,34,36,38,40,42,44,46,48,50,52,54,56,58,60,-1,-1,-1,-1,62,-1,-1,64,-1,66,-1,68,-1,70,72,74,76,78,80,82,84,86,88,90,-1,-1,-1,-1,-1,-1,-1,-1,-1,-1,-1,-1,-1,-1,-1,-1,-1,-1,-1,-1,-1,-1,-1,-1,-1,-1,-1,-1,-1,-1,-1,-1,-1,-1],"split_conditions":[-2.7156987E0,-1.8989291E0,3.835063E-1,2.9507387E-1,1.9506553E0,-1.4175076E0,2.4921182E-1,3.0613893E-1,2.1440692E0,3.7314951E0,6.862323E-1,-8.1163996E-1,-1.7488364E-2,1.14870384E-1,2.615997E0,-4.1691315E-1,6.830008E-2,7.674305E-1,-3.7826928E-1,-1.290741E0,-3.912294E-1,-4.281593E-1,-3.18985E0,3.110531E-2,2.8961325E-1,8.746825E-1,1.21733256E-1,3.2426432E-1,-1.6296254E-1,-2.56681E0,8.4415925E-1,1.9127654E0,1.4620427E0,-8.3509415E-2,-3.7224072E-1,3.270483E-1,-2.789324E-1,1.9074354E0,-5.7525784E-1,2.774187E-1,-2.3284464E0,-3.7142488E-1,1.1626753E-2,-3.3711696E-1,1.9044278E0,-3.2475317E-1,1.2927991E0,-4.006244E0,-8.051796E-3,1.6474295E-1,9.2059654E-1,1.1888965E0,4.4664165E-1,-2.9980817E-1,2.6517713E-1,8.566905E-1,9.164351E-1,3.2322314E-1,7.0995145E-2,-8.1705993E-1,3.1756407E-1,2.976603E-1,-3.5083452E-1,-2.665289E-1,-6.730803E-1,1.897481E-1,-3.7544218E-1,-3.5021496E-1,2.9500416E-1,-3.2641068E-1,2.1983059E-1,2.7351394E-1,-3.2970402E-1,-2.9603484E-1,2.449982E-2,2.7559796E-2,-3.053962E-1,-3.5158995E-1,1.569597E-1,-2.8288114E-1,2.7519214E-1,1.912769E-1,-1.1565544E-1,3.4315208E-1,-5.003968E-1,-2.1123591E-1,-3.6128956E-1,2.5161916E-1,-4.6284705E-1,-1.4915322E-1,-3.7311286E-1],"split_indices":[14,10,4,11,4,14,8,8,7,21,13,3,4,17,4,0,0,7,0,11,15,3,7,18,4,21,18,24,18,17,3,16,4,0,0,0,0,1,0,0,1,0,28,0,7,0,22,23,28,0,21,10,0,20,8,2,3,0,0,0,0,0,0,0,0,0,0,0,0,0,0,0,0,0,0,0,0,0,0,0,0,0,0,0,0,0,0,0,0,0,0],"split_type":[0,0,0,0,0,0,0,0,0,0,0,0,0,0,0,0,0,0,0,0,0,0,0,0,0,0,0,0,0,0,0,0,0,0,0,0,0,0,0,0,0,0,0,0,0,0,0,0,0,0,0,0,0,0,0,0,0,0,0,0,0,0,0,0,0,0,0,0,0,0,0,0,0,0,0,0,0,0,0,0,0,0,0,0,0,0,0,0,0,0,0],"sum_hessian":[3.4441734E4,1.2173431E4,2.22683E4,1.1339077E4,8.343539E2,9.664637E3,1.2603665E4,6.0646944E0,1.1333013E4,2.1812927E2,6.162246E2,6.818131E2,8.982823E3,9.918389E3,2.6852766E3,4.9782577E0,1.0864366E0,1.1331387E4,1.6256431E0,1.5174281E2,6.6386475E1,5.983203E2,1.7904272E1,4.0082095E2,2.8099216E2,6.6691597E3,2.3136636E3,4.3630654E3,5.555323E3,1.8628221E3,8.224546E2,1.1126372E4,2.0501466E2,1.035962E0,1.5070685E2,6.530517E1,1.0812995E0,5.947205E2,3.59978E0,5.4353566E0,1.2468916E1,7.241082E1,3.2841013E2,2.690969E2,1.1895255E1,6.4678975E3,2.0126225E2,1.1843905E3,1.1292731E3,3.1572688E3,1.2057965E3,1.2319199E3,4.323403E3,7.88689E1,1.7839532E3,5.3115955E2,2.9129507E2,1.1124924E4,1.4484544E0,6.5594354E0,1.9845523E2,5.8838965E2,6.330872E0,3.0225947E0,9.4463215E0,2.7609567E2,5.2314453E1,8.998084E0,2.8971708E0,1.7371808E2,2.7544184E1,5.8467026E0,1.1785438E3,6.0195123E2,5.2732184E2,2.1564446E3,1.0008242E3,1.1460225E3,5.9774113E1,1.014811E3,2.1710902E2,3.3266934E3,9.967097E2,7.779841E1,1.0704875E0,8.647357E1,1.6974796E3,4.2925012E2,1.0190939E2,1.102997E1,2.802651E2],"tree_param":{"num_deleted":"0","num_feature":"30","num_nodes":"91","size_leaf_vector":"1"}},{"base_weights":[-2.7731827E-3,1.0083176E0,-4.9503568E-1,1.0487218E0,4.7895318E-1,-9.257241E-1,-2.2563851E-1,-9.641558E-1,1.0500635E0,-5.081487E-1,8.2660747E-1,-6.339406E-1,-1.0092343E0,-9.143194E-3,-5.4159695E-1,6.066121E-2,-3.7284413E-1,1.0505681E0,-3.2161462E-1,-3.5469675E-1,9.936178E-1,8.8733023E-1,-9.5295095E-1,-9.433734E-1,-9.711159E-2,-1.0369706E0,-4.9306768E-1,-1.1309316E0,1.1660061E-1,-7.5240135E-1,1.15379564E-1,1.0536903E0,8.994126E-1,3.1656224E-1,-2.808327E-1,9.107812E-1,-2.1843967E0,2.5697318E-1,-4.8029485E-1,-3.1991774E-1,-4.8403284E-1,3.1922576E-1,-3.562381E-1,-1.0550745E0,-8.93465E-1,7.991705E-1,-9.9571854E-1,-6.920921E-1,-1.2060012E0,2.763222E-1,-6.091835E-1,2.589203E-1,-8.635421E-1,-1.2392429E0,5.1675737E-1,3.1618878E-1,1.0122848E-1,-6.7973286E-1,3.0955082E-1,2.7999017E-1,-6.6867524E-1,-8.182473E-1,-1.999027E-1,-2.7280855E-1,6.0541943E-2,-8.9573786E-2,5.135612E-1,-2.9257178E-1,-3.1798887E-1,6.1391164E-2,-2.998376E-1,-3.168853E-1,4.3889436E-1,-3.2452378E-1,1.6093686E-2,1.5249033E-1,-3.4075552E-1,-4.180776E-1,-3.5537097E-1,1.3598904E-1,-1.6363503E-1,-3.449243E-1,-4.5860955E-3,-3.6225897E-1,3.4528226E-1,-2.7503264E-1,3.420665E-1,-3.9081737E-1,-2.4927892E-1,2.4406008E-1,-3.7881473E-1],"categories":[],"categories_nodes":[],"categories_segments":[],"categories_sizes":[],"default_left":[0,0,0,0,0,0,0,0,0,0,0,0,0,0,0,0,0,0,0,0,0,0,0,0,0,0,0,0,0,0,0,0,0,0,0,0,0,0,0,0,0,0,0,0,0,0,0,0,0,0,0,0,0,0,0,0,0,0,0,0,0,0,0,0,0,0,0,0,0,0,0,0,0,0,0,0,0,0,0,0,0,0,0,0,0,0,0,0,0,0,0],"id":7,"left_children":[1,3,5,7,9,11,13,15,17,19,21,23,25,27,29,-1,-1,31,-1,-1,33,35,37,39,41,43,45,47,49,51,53,55,57,-1,-1,59,61,-1,-1,-1,63,65,-1,67,69,71,73,75,77,79,81,83,85,87,89,-1,-1,-1,-1,-1,-1,-1,-1,-1,-1,-1,-1,-1,-1,-1,-1,-1,-1,-1,-1,-1,-1,-1,-1,-1,-1,-1,-1,-1,-1,-1,-1,-1,-1,-1,-1],"loss_changes":[1.401327E4,1.9667969E2,2.1968306E3,2.4142578E1,2.254017E2,1.7690332E2,7.9692725E2,2.274838E0,1.0291016E1,1.7468681E2,5.327826E1,2.6967896E2,8.056738E1,9.7546387E2,6.561378E2,0E0,0E0,3.0917969E0,0E0,0E0,7.3631554E0,3.5826355E1,2.0711227E1,5.7691833E1,2.704509E2,1.3017578E1,1.8962076E2,2.2127747E1,7.2102423E2,4.0333618E2,6.267875E2,1.2792969E0,7.779173E1,0E0,0E0,3.5089966E1,1.3593235E0,0E0,0E0,0E0,6.4192795E1,3.7161655E2,0E0,8.261719E-1,7.102652E1,1.0249925E2,1.899199E1,5.6064518E1,7.367554E-1,7.415823E2,3.6016983E2,4.6691934E2,3.4574634E2,5.748169E0,4.7055774E2,0E0,0E0,0E0,0E0,0E0,0E0,0E0,0E0,0E0,0E0,0E0,0E0,0E0,0E0,0E0,0E0,0E0,0E0,0E0,0E0,0E0,0E0,0E0,0E0,0E0,0E0,0E0,0E0,0E0,0E0,0E0,0E0,0E0,0E0,0E0,0E0],"parents":[2147483647,0,0,1,1,2,2,3,3,4,4,5,5,6,6,7,7,8,8,9,9,10,10,11,11,12,12,13,13,14,14,17,17,20,20,21,21,22,22,23,23,24,24,25,25,26,26,27,27,28,28,29,29,30,30,31,31,32,32,35,35,36,36,40,40,41,41,43,43,44,44,45,45,46,46,47,47,48,48,49,49,50,50,51,51,52,52,53,53,54,54],"right_children":[2,4,6,8,10,12,14,16,18,20,22,24,26,28,30,-1,-1,32,-1,-1,34,36,38,40,42,44,46,48,50,52,54,56,58,-1,-1,60,62,-1,-1,-1,64,66,-1,68,70,72,74,76,78,80,82,84,86,88,90,-1,-1,-1,-1,-1,-1,-1,-1,-1,-1,-1,-1,-1,-1,-1,-1,-1,-1,-1,-1,-1,-1,-1,-1,-1,-1,-1,-1,-1,-1,-1,-1,-1,-1,-1,-1],"split_conditions":[-2.7156987E0,-1.8989291E0,3.4655863E-1,2.9507387E-1,2.0052378E0,-6.3702583E-1,3.8001467E-2,4.1700563E-1,2.1440692E0,2.4743369E0,6.862323E-1,-2.0000224E-1,6.323603E-1,-1.060274E0,3.5129553E-1,6.066121E-2,-3.7284413E-1,5.5974495E-1,-3.2161462E-1,-3.5469675E-1,-1.7894557E-1,1.7680628E0,-3.18985E0,1.0679783E0,1.8386919E-2,1.8793218E-1,-1.2760464E0,-1.0308101E0,4.0562868E-1,-1.651199E0,-6.6275126E-1,1.5757749E0,1.528994E0,3.1656224E-1,-2.808327E-1,5.649522E-1,3.6761957E-1,2.5697318E-1,-4.8029485E-1,-3.1991774E-1,8.162718E-1,-6.249904E-3,-3.562381E-1,-1.3682228E0,-4.6891552E-1,-2.0000224E-1,4.6882045E-1,-2.597769E-1,-3.7525526E-1,5.758308E-2,2.5204813E-1,-2.514893E-2,5.2566853E0,3.03131E-1,2.7052975E-1,3.1618878E-1,1.0122848E-1,-6.7973286E-1,3.0955082E-1,2.7999017E-1,-6.6867524E-1,-8.182473E-1,-1.999027E-1,-2.7280855E-1,6.0541943E-2,-8.9573786E-2,5.135612E-1,-2.9257178E-1,-3.1798887E-1,6.1391164E-2,-2.998376E-1,-3.168853E-1,4.3889436E-1,-3.2452378E-1,1.6093686E-2,1.5249033E-1,-3.4075552E-1,-4.180776E-1,-3.5537097E-1,1.3598904E-1,-1.6363503E-1,-3.449243E-1,-4.5860955E-3,-3.6225897E-1,3.4528226E-1,-2.7503264E-1,3.420665E-1,-3.9081737E-1,-2.4927892E-1,2.4406008E-1,-3.7881473E-1],"split_indices":[14,10,4,11,4,14,14,7,7,21,13,4,21,11,20,0,0,7,0,0,12,7,7,17,28,4,13,13,24,19,0,16,4,0,0,8,9,0,0,0,11,28,0,6,14,4,1,8,8,27,18,9,5,1,13,0,0,0,0,0,0,0,0,0,0,0,0,0,0,0,0,0,0,0,0,0,0,0,0,0,0,0,0,0,0,0,0,0,0,0,0],"split_type":[0,0,0,0,0,0,0,0,0,0,0,0,0,0,0,0,0,0,0,0,0,0,0,0,0,0,0,0,0,0,0,0,0,0,0,0,0,0,0,0,0,0,0,0,0,0,0,0,0,0,0,0,0,0,0,0,0,0,0,0,0,0,0,0,0,0,0,0,0,0,0,0,0,0,0,0,0,0,0,0,0,0,0,0,0,0,0,0,0,0,0],"sum_hessian":[2.8152807E4,9.218096E3,1.893471E4,8.563498E3,6.5459784E2,7.285254E3,1.1649457E4,5.2259703E0,8.558271E3,1.7037811E2,4.8421973E2,1.6230236E3,5.6622305E3,6.9134067E3,4.7360503E3,1.0606873E0,4.165283E0,8.556742E3,1.5297189E0,1.177365E2,5.2641613E1,4.6872702E2,1.5492699E1,1.02909E3,5.9393365E2,5.372527E3,2.8970367E2,6.9602435E2,6.2173823E3,3.5854421E3,1.1506082E3,8.377724E3,1.790183E2,5.145262E1,1.1889901E0,4.6587384E2,2.8532066E0,4.0003977E0,1.1492301E1,8.1066016E2,2.1842981E2,4.303258E2,1.6360783E2,4.765047E3,6.074796E2,8.096504E1,2.0873862E2,1.0316487E2,5.928595E2,5.09644E3,1.1209423E3,3.5488123E2,3.2305608E3,2.6252316E2,8.88085E2,8.374069E3,3.6547356E0,6.5419693E0,1.7247633E2,4.632539E2,2.619913E0,1.5146343E0,1.3385724E0,1.3461888E2,8.3810936E1,2.986322E2,1.316936E2,2.8650818E2,4.478539E3,5.3393013E1,5.540866E2,2.1177992E1,5.9787052E1,1.928942E2,1.5844414E1,2.7805117E1,7.535976E1,5.422207E1,5.386374E2,4.193737E3,9.027031E2,5.863295E2,5.346127E2,1.3408936E2,2.2079185E2,3.147485E3,8.307574E1,2.2530402E2,3.7219135E1,7.616086E2,1.2647642E2],"tree_param":{"num_deleted":"0","num_feature":"30","num_nodes":"91","size_leaf_vector":"1"}},{"base_weights":[-5.007551E-3,9.8727006E-1,-4.2908156E-1,1.0335418E0,4.7314736E-1,-8.879435E-1,-1.9089358E-1,-5.662955E-1,1.0342276E0,6.763314E-1,-9.262156E-1,-3.290533E-1,-9.4972974E-1,-5.8256738E-2,-6.518439E-1,-2.9154965E-1,5.866023E-2,1.0347413E0,-2.2217512E-1,7.9000187E-1,-1.1236401E0,4.1936648E-1,-1.1758876E0,-3.2688323E-1,7.1892105E-2,-1.034804E0,-6.9381005E-1,2.2271082E-1,-4.052975E-1,-1.0104151E0,-1.4958693E-1,1.0367302E0,6.8212277E-1,8.325964E-1,-1.6813552E0,-1.4341533E0,7.1725327E-1,-3.0770114E-1,8.950247E-1,1.20112516E-1,-1.2223488E0,-1.1143006E0,3.7947968E-1,-3.1305954E-1,-7.671771E-1,7.7749684E-2,-8.5985243E-1,7.374963E-1,-2.2783771E-1,-1.2764123E-1,-1.0744177E0,1.0309391E0,-1.0629501E0,-7.4122727E-1,5.860387E-1,1.12163045E-1,3.1106693E-1,-9.894607E-1,2.6867095E-1,6.415442E-2,2.8933436E-1,-9.174595E-1,-1.8379572E-1,-6.930864E-1,-7.016075E-2,2.3790172E-1,6.214053E-2,2.8090587E-1,8.0325425E-2,-3.3236068E-1,-4.9906275E-1,-3.3931112E-1,-9.651206E-2,-3.4244895E-1,1.9070277E-1,1.4502104E-1,-3.1683898E-1,-3.2596472E-1,2.4958913E-1,7.909381E-2,-3.0417222E-1,2.4386308E-1,-4.430127E-1,-2.7003226E-1,3.177596E-2,-1.9925982E-1,1.0546831E-1,-3.2745102E-1,8.940606E-1,-1.3117817E-1,3.295408E-1,-3.3469194E-1,-1.8120843E-1,-3.411948E-1,2.998811E-1,4.167928E-1,-1.0730274E-1],"categories":[],"categories_nodes":[],"categories_segments":[],"categories_sizes":[],"default_left":[0,0,0,0,0,0,0,0,0,0,0,0,0,0,0,0,0,0,0,0,0,0,0,0,0,0,0,0,0,0,0,0,0,0,0,0,0,0,0,0,0,0,0,0,0,0,0,0,0,0,0,0,0,0,0,0,0,0,0,0,0,0,0,0,0,0,0,0,0,0,0,0,0,0,0,0,0,0,0,0,0,0,0,0,0,0,0,0,0,0,0,0,0,0,0,0,0],"id":8,"left_children":[1,3,5,7,9,11,13,15,17,19,21,23,25,27,29,-1,-1,31,-1,33,35,37,39,-1,41,43,45,47,49,51,53,55,57,59,61,63,65,-1,67,-1,69,71,73,-1,75,77,79,81,83,85,87,89,91,93,95,-1,-1,-1,-1,-1,-1,-1,-1,-1,-1,-1,-1,-1,-1,-1,-1,-1,-1,-1,-1,-1,-1,-1,-1,-1,-1,-1,-1,-1,-1,-1,-1,-1,-1,-1,-1,-1,-1,-1,-1,-1,-1],"loss_changes":[9.773382E3,1.6494385E2,1.778248E3,7.585449E0,1.6441173E2,1.9168066E2,6.549298E2,1.2341465E0,6.57959E0,1.0392308E2,2.5171474E1,1.6932079E2,1.08270996E2,8.1135986E2,4.309359E2,0E0,0E0,3.7636719E0,0E0,5.1323547E1,1.8363564E1,9.326889E0,5.0463486E0,0E0,1.3336035E2,7.970215E0,1.6045624E2,1.0666967E3,6.9149066E2,1.5085254E2,4.3489264E2,2.8173828E-1,3.5816376E1,3.7884216E1,1.0437454E1,2.7098442E1,3.0637264E-2,0E0,1.7437935E-3,0E0,1.2222748E0,6.347351E-1,1.13758644E2,0E0,4.4727943E1,1.9640067E2,1.7859589E2,3.5945654E2,5.5047614E2,6.770024E2,7.887537E1,4.004383E0,3.225708E1,3.8292975E2,3.382353E2,0E0,0E0,0E0,0E0,0E0,0E0,0E0,0E0,0E0,0E0,0E0,0E0,0E0,0E0,0E0,0E0,0E0,0E0,0E0,0E0,0E0,0E0,0E0,0E0,0E0,0E0,0E0,0E0,0E0,0E0,0E0,0E0,0E0,0E0,0E0,0E0,0E0,0E0,0E0,0E0,0E0,0E0],"parents":[2147483647,0,0,1,1,2,2,3,3,4,4,5,5,6,6,7,7,8,8,9,9,10,10,11,11,12,12,13,13,14,14,17,17,19,19,20,20,21,21,22,22,24,24,25,25,26,26,27,27,28,28,29,29,30,30,31,31,32,32,33,33,34,34,35,35,36,36,38,38,40,40,41,41,42,42,44,44,45,45,46,46,47,47,48,48,49,49,50,50,51,51,52,52,53,53,54,54],"right_children":[2,4,6,8,10,12,14,16,18,20,22,24,26,28,30,-1,-1,32,-1,34,36,38,40,-1,42,44,46,48,50,52,54,56,58,60,62,64,66,-1,68,-1,70,72,74,-1,76,78,80,82,84,86,88,90,92,94,96,-1,-1,-1,-1,-1,-1,-1,-1,-1,-1,-1,-1,-1,-1,-1,-1,-1,-1,-1,-1,-1,-1,-1,-1,-1,-1,-1,-1,-1,-1,-1,-1,-1,-1,-1,-1,-1,-1,-1,-1,-1,-1],"split_conditions":[-2.7156987E0,-1.7836455E0,3.30193E-1,2.9507387E-1,4.8447552E-1,-1.29931E0,1.9388619E-1,-1.7981139E-1,2.1440692E0,-2.7736914E-1,-2.0498838E0,-4.1040263E-1,-1.7488364E-2,9.543283E-1,2.0366218E0,-2.9154965E-1,5.866023E-2,2.9966416E0,-2.2217512E-1,1.9074354E0,1.1811829E0,1.8428042E0,-7.238293E0,-3.2688323E-1,-1.9284138E-1,8.746825E-1,-7.850823E-1,-5.4605937E-1,8.7559596E-2,-2.56681E0,5.344416E-1,-4.3543655E-1,1.9790945E0,1.6598722E0,-1.3243288E0,-1.0915958E-1,-1.278054E0,-3.0770114E-1,-5.8508563E-1,1.20112516E-1,1.8932652E0,-1.9884132E-1,3.110531E-2,-3.1305954E-1,-1.4380829E0,5.9970856E-1,-1.1533599E0,6.319413E-1,-1.4837965E-1,-4.8852786E-1,5.608881E-2,1.1854478E-1,1.2664763E0,5.2566853E0,-9.772106E-1,1.12163045E-1,3.1106693E-1,-9.894607E-1,2.6867095E-1,6.415442E-2,2.8933436E-1,-9.174595E-1,-1.8379572E-1,-6.930864E-1,-7.016075E-2,2.3790172E-1,6.214053E-2,2.8090587E-1,8.0325425E-2,-3.3236068E-1,-4.9906275E-1,-3.3931112E-1,-9.651206E-2,-3.4244895E-1,1.9070277E-1,1.4502104E-1,-3.1683898E-1,-3.2596472E-1,2.4958913E-1,7.909381E-2,-3.0417222E-1,2.4386308E-1,-4.430127E-1,-2.7003226E-1,3.177596E-2,-1.9925982E-1,1.0546831E-1,-3.2745102E-1,8.940606E-1,-1.3117817E-1,3.295408E-1,-3.3469194E-1,-1.8120843E-1,-3.411948E-1,2.998811E-1,4.167928E-1,-1.0730274E-1],"split_indices":[14,12,4,11,15,14,8,19,7,29,10,1,4,1,4,0,0,18,0,1,21,4,8,0,25,21,15,13,14,17,11,4,11,4,9,12,7,0,6,0,4,25,18,0,13,9,6,25,23,6,28,29,12,5,15,0,0,0,0,0,0,0,0,0,0,0,0,0,0,0,0,0,0,0,0,0,0,0,0,0,0,0,0,0,0,0,0,0,0,0,0,0,0,0,0,0,0],"split_type":[0,0,0,0,0,0,0,0,0,0,0,0,0,0,0,0,0,0,0,0,0,0,0,0,0,0,0,0,0,0,0,0,0,0,0,0,0,0,0,0,0,0,0,0,0,0,0,0,0,0,0,0,0,0,0,0,0,0,0,0,0,0,0,0,0,0,0,0,0,0,0,0,0,0,0,0,0,0,0,0,0,0,0,0,0,0,0,0,0,0,0,0,0,0,0,0,0],"sum_hessian":[2.3223756E4,6.9530957E3,1.6270661E4,6.3780527E3,5.750431E2,5.5588936E3,1.0711768E4,2.37958E0,6.375673E3,5.025856E2,7.24575E1,5.539989E2,5.0048945E3,8.319102E3,2.3926658E3,1.3730327E0,1.0065472E0,6.374245E3,1.4277428E0,4.7325977E2,2.9325846E1,1.1233892E1,6.1223602E1,1.9064496E2,3.633539E2,3.7539438E3,1.2509509E3,4.597378E3,3.7217236E3,1.3954293E3,9.972364E2,6.336565E3,3.768061E1,4.6589304E2,7.366704E0,2.5282295E1,4.0435514E0,2.4957013E0,8.738192E0,1.5348319E0,5.968877E1,7.427895E1,2.8907498E2,3.6325793E3,1.21364296E2,2.2162831E2,1.0293226E3,2.1454282E3,2.4519495E3,2.6311145E3,1.0906091E3,3.454361E1,1.3608857E3,5.527054E2,4.44531E2,2.088817E0,6.334476E3,1.1822433E0,3.6498367E1,8.229998E1,3.8359308E2,2.40573E0,4.9609737E0,1.4079979E1,1.1202315E1,3.037875E0,1.0056763E0,7.7357807E0,1.0024108E0,5.0179405E1,9.509364E0,7.232474E1,1.9542116E0,4.1174736E1,2.4790024E2,2.265239E1,9.8711914E1,8.6954254E1,1.3467406E2,1.2403595E2,9.0528674E2,2.075406E3,7.00224E1,8.128908E2,1.6390587E3,1.241091E3,1.3900236E3,1.0867605E3,3.8486955E0,1.278224E0,3.326539E1,1.2194476E3,1.4143813E2,4.505411E2,1.0216429E2,2.3987885E2,2.0465218E2],"tree_param":{"num_deleted":"0","num_feature":"30","num_nodes":"97","size_leaf_vector":"1"}},{"base_weights":[-6.9638696E-3,9.9230754E-1,-3.594872E-1,1.017194E0,4.4536477E-1,-9.476556E-1,-1.8332909E-1,1.0193664E0,-1.6067665E0,7.84664E-1,-1.2663279E0,-3.5460147E-1,-1.0067384E0,-3.526518E-1,1.7327954E-1,1.0203801E0,-6.007304E-1,-5.756638E-1,-1.0356326E-1,-3.3135536E-1,8.9009005E-1,-1.3594509E0,1.7156875E-1,-3.1957957E-1,5.0507095E-2,-1.0225325E0,-6.3384646E-1,-9.233559E-1,-1.4113948E-1,-2.9604825E-1,5.844601E-1,1.0209582E0,1.4038803E-1,8.2954526E-2,-3.1504592E-1,-6.49813E-1,9.389284E-1,-6.4491403E-1,-3.4783024E-1,4.3196645E-1,-1.1142755E0,-1.0294544E0,-5.302753E-1,-3.1075734E-1,4.8699442E-1,-1.0438694E0,-3.5997087E-1,5.8190585E-3,-9.3369937E-1,-1.0357893E0,3.0714443E-1,7.544527E-1,-3.254326E-1,3.7937075E-2,3.064073E-1,2.1714027E-1,-2.5506085E-1,-2.4845667E-1,2.876089E-1,-3.6036766E-1,2.518314E-1,-3.4397155E-1,5.40107E-2,-1.9405477E-1,-3.0953023E-1,-3.0115888E-1,3.9449278E-1,3.8970324E-1,-3.2432404E-1,2.291897E-1,-3.2085478E-1,1.5429386E-1,-2.5028968E-1,6.9140226E-2,-1.7195511E-1,-3.1241488E-1,2.7337098E-1,-3.7132677E-1,-1.00274086E-1,1.9782697E-1,-4.294077E-1,-3.632176E-1,2.5147334E-1,1.05300345E-1,-4.1435865E-1],"categories":[],"categories_nodes":[],"categories_segments":[],"categories_sizes":[],"default_left":[0,0,0,0,0,0,0,0,0,0,0,0,0,0,0,0,0,0,0,0,0,0,0,0,0,0,0,0,0,0,0,0,0,0,0,0,0,0,0,0,0,0,0,0,0,0,0,0,0,0,0,0,0,0,0,0,0,0,0,0,0,0,0,0,0,0,0,0,0,0,0,0,0,0,0,0,0,0,0,0,0,0,0,0,0],"id":9,"left_children":[1,3,5,7,9,11,13,15,17,19,21,23,25,27,29,31,33,-1,-1,-1,35,37,-1,-1,39,41,43,45,47,49,51,53,55,-1,-1,-1,57,-1,-1,59,61,63,65,-1,67,69,71,73,75,77,79,81,83,-1,-1,-1,-1,-1,-1,-1,-1,-1,-1,-1,-1,-1,-1,-1,-1,-1,-1,-1,-1,-1,-1,-1,-1,-1,-1,-1,-1,-1,-1,-1,-1],"loss_changes":[6.831952E3,6.838916E1,1.485249E3,2.9208984E1,1.2986343E2,1.1541235E2,6.6629144E2,8.550781E0,1.0658274E0,3.7989098E1,7.1266823E0,8.667615E1,1.7044434E1,9.0299066E2,6.858102E2,2.3149414E0,1.7302053E0,0E0,0E0,0E0,2.8382751E1,3.1344223E0,0E0,0E0,8.605386E1,9.268555E0,5.6693546E1,1.3696838E2,6.3592786E2,7.409357E2,2.9321722E2,1.5952148E0,3.1181557E0,0E0,0E0,0E0,6.888092E0,0E0,0E0,9.803589E1,2.2042122E0,1.8457031E0,3.8026127E1,0E0,4.4186623E1,7.805542E1,1.4888593E2,5.993456E2,1.7061707E2,1.0525018E2,5.6136127E2,2.6386206E2,2.1391988E2,0E0,0E0,0E0,0E0,0E0,0E0,0E0,0E0,0E0,0E0,0E0,0E0,0E0,0E0,0E0,0E0,0E0,0E0,0E0,0E0,0E0,0E0,0E0,0E0,0E0,0E0,0E0,0E0,0E0,0E0,0E0,0E0],"parents":[2147483647,0,0,1,1,2,2,3,3,4,4,5,5,6,6,7,7,8,8,9,9,10,10,11,11,12,12,13,13,14,14,15,15,16,16,20,20,21,21,24,24,25,25,26,26,27,27,28,28,29,29,30,30,31,31,32,32,36,36,39,39,40,40,41,41,42,42,44,44,45,45,46,46,47,47,48,48,49,49,50,50,51,51,52,52],"right_children":[2,4,6,8,10,12,14,16,18,20,22,24,26,28,30,32,34,-1,-1,-1,36,38,-1,-1,40,42,44,46,48,50,52,54,56,-1,-1,-1,58,-1,-1,60,62,64,66,-1,68,70,72,74,76,78,80,82,84,-1,-1,-1,-1,-1,-1,-1,-1,-1,-1,-1,-1,-1,-1,-1,-1,-1,-1,-1,-1,-1,-1,-1,-1,-1,-1,-1,-1,-1,-1,-1,-1],"split_conditions":[-3.2076874E0,5.278092E-1,3.0662064E-2,2.26276E0,-2.3271897E0,-1.4758979E0,1.7519177E0,3.0446228E-1,1.6930568E0,2.1760268E0,1.3279208E0,1.0012736E0,7.5630695E-1,-1.6296254E-1,2.74114E-1,2.0971522E0,-3.9185119E0,-5.756638E-1,-1.0356326E-1,-3.3135536E-1,-7.507583E0,-1.2776257E0,1.7156875E-1,-3.1957957E-1,7.735926E-1,1.1524029E0,1.0864439E0,1.4301782E0,9.1440046E-1,5.8160584E-2,9.124713E-1,-4.3543655E-1,-3.0401295E-1,8.2954526E-2,-3.1504592E-1,-6.49813E-1,9.876925E-1,-6.4491403E-1,-3.4783024E-1,-6.226248E-1,5.0003564E-1,-1.4175076E0,1.3194153E0,-3.1075734E-1,-5.946402E-1,-1.978205E0,-2.6798865E-1,3.1656674E-1,3.7314951E0,2.0506336E-1,1.1919509E0,-1.6345209E0,3.3769557E-1,3.7937075E-2,3.064073E-1,2.1714027E-1,-2.5506085E-1,-2.4845667E-1,2.876089E-1,-3.6036766E-1,2.518314E-1,-3.4397155E-1,5.40107E-2,-1.9405477E-1,-3.0953023E-1,-3.0115888E-1,3.9449278E-1,3.8970324E-1,-3.2432404E-1,2.291897E-1,-3.2085478E-1,1.5429386E-1,-2.5028968E-1,6.9140226E-2,-1.7195511E-1,-3.1241488E-1,2.7337098E-1,-3.7132677E-1,-1.00274086E-1,1.9782697E-1,-4.294077E-1,-3.632176E-1,2.5147334E-1,1.05300345E-1,-4.1435865E-1],"split_indices":[14,7,4,16,3,14,4,12,1,4,1,17,21,18,11,16,14,0,0,0,14,9,0,0,5,26,22,4,18,28,10,4,29,0,0,0,11,0,0,5,29,14,12,0,20,25,9,0,21,29,2,0,2,0,0,0,0,0,0,0,0,0,0,0,0,0,0,0,0,0,0,0,0,0,0,0,0,0,0,0,0,0,0,0,0],"split_type":[0,0,0,0,0,0,0,0,0,0,0,0,0,0,0,0,0,0,0,0,0,0,0,0,0,0,0,0,0,0,0,0,0,0,0,0,0,0,0,0,0,0,0,0,0,0,0,0,0,0,0,0,0,0,0,0,0,0,0,0,0,0,0,0,0,0,0,0,0,0,0,0,0,0,0,0,0,0,0,0,0,0,0,0,0],"sum_hessian":[1.939226E4,5.0566733E3,1.4335587E4,4.835781E3,2.2089246E2,3.3029841E3,1.1032603E4,4.8323916E3,3.389219E0,1.8480182E2,3.6090637E1,2.9988077E2,3.0031035E3,7.480682E3,3.5519204E3,4.8297397E3,2.652017E0,2.2993186E0,1.0899006E0,9.266907E0,1.7553491E2,3.4598362E1,1.4922744E0,1.0828744E2,1.9159334E2,2.8794026E3,1.2370093E2,2.0218762E3,5.458806E3,1.6588097E3,1.8931108E3,4.8264087E3,3.3306396E0,1.0287305E0,1.6232866E0,2.0791276E0,1.7345578E2,5.0193505E0,2.9579012E1,1.4480101E2,4.6792324E1,2.8383994E3,4.1003178E1,9.110145E1,3.2599483E1,1.6648878E3,3.5698843E2,4.6057827E3,8.530236E2,7.447496E2,9.140601E2,1.5952465E3,2.9786438E2,2.2959483E0,4.824113E3,2.2656178E0,1.0650216E0,1.4664791E0,1.719893E2,2.8524315E1,1.16276695E2,4.576453E1,1.0277971E0,1.8742859E1,2.8196565E3,3.299175E1,8.011426E0,2.1590555E1,1.1008927E1,2.2885572E1,1.6420022E3,1.2552881E2,2.3145963E2,3.3187402E3,1.2870422E3,8.063924E2,4.6631218E1,5.7767786E2,1.6707172E2,7.60565E2,1.5349512E2,6.468693E1,1.5305594E3,1.8195331E2,1.1591107E2],"tree_param":{"num_deleted":"0","num_feature":"30","num_nodes":"85","size_leaf_vector":"1"}},{"base_weights":[-8.558847E-3,9.863902E-1,-3.0364698E-1,1.007628E0,4.9568155E-1,-9.3827957E-1,-1.5162544E-1,1.0092914E0,-4.0156654E-1,7.526771E-1,-1.3291398E0,-3.5134938E-1,-1.0032542E0,-1.240179E0,-9.498553E-2,1.0098839E0,-1.5833744E-1,-3.0942458E-1,8.408665E-1,-5.7341784E-1,-3.245862E-1,1.2734223E-2,-3.1154028E-1,-1.0170029E0,-6.52467E-1,2.78364E-1,-1.270891E0,5.7577368E-2,-5.068126E-1,1.0102285E0,-2.242928E-2,-1.2693584E0,9.126982E-1,-8.5760164E-1,4.6492842E-1,-1.0212094E0,-6.888903E-1,-3.0594593E-1,4.909333E-1,-3.9075983E-1,3.3773872E-1,-1.1002003E0,-1.4485153E0,1.8939398E-1,-6.507959E-1,7.5475746E-1,-6.003771E-1,3.0320647E-1,4.3545906E-2,1.1004137E-1,-5.640229E-1,-2.6176068E-1,2.8089252E-1,-3.508004E-1,2.2242848E-2,2.6352102E-1,-3.368545E-1,-1.9504794E-1,-3.0709234E-1,-2.9545E-1,2.4859338E-1,-3.1140247E-1,3.5370302E-1,3.5958413E-2,-3.477623E-1,-5.642908E-1,-3.6372286E-1,-2.980113E-1,8.125094E-2,1.22590154E-1,-2.730935E-1,3.3650386E-1,-3.6988053E-1,1.7999202E-2,-2.2184965E-1],"categories":[],"categories_nodes":[],"categories_segments":[],"categories_sizes":[],"default_left":[0,0,0,0,0,0,0,0,0,0,0,0,0,0,0,0,0,0,0,0,0,0,0,0,0,0,0,0,0,0,0,0,0,0,0,0,0,0,0,0,0,0,0,0,0,0,0,0,0,0,0,0,0,0,0,0,0,0,0,0,0,0,0,0,0,0,0,0,0,0,0,0,0,0,0],"id":10,"left_children":[1,3,5,7,9,11,13,15,-1,17,19,21,23,25,27,29,-1,-1,31,-1,-1,33,-1,35,37,39,41,43,45,47,-1,49,51,53,55,57,59,-1,61,-1,-1,63,65,67,69,71,73,-1,-1,-1,-1,-1,-1,-1,-1,-1,-1,-1,-1,-1,-1,-1,-1,-1,-1,-1,-1,-1,-1,-1,-1,-1,-1,-1,-1],"loss_changes":[4.8093086E3,3.854956E1,1.2187225E3,1.536377E1,7.482074E1,9.274658E1,6.2835944E2,3.8007812E0,0E0,2.2676826E1,7.807121E-1,6.126877E1,9.934082E0,2.3862244E1,6.088654E2,1.416748E0,0E0,0E0,2.1263893E1,0E0,0E0,6.3777283E1,0E0,2.2126465E0,3.6483204E1,1.5952354E1,1.3391602E1,6.6045135E2,3.096577E2,1.2797852E0,0E0,5.470561E0,6.2480545E0,1.618179E1,7.098657E1,1.2145996E0,1.4206623E1,0E0,2.3848295E1,0E0,0E0,1.8583862E1,2.2127655E1,5.746739E2,3.0547345E2,1.336153E2,2.241416E2,0E0,0E0,0E0,0E0,0E0,0E0,0E0,0E0,0E0,0E0,0E0,0E0,0E0,0E0,0E0,0E0,0E0,0E0,0E0,0E0,0E0,0E0,0E0,0E0,0E0,0E0,0E0,0E0],"parents":[2147483647,0,0,1,1,2,2,3,3,4,4,5,5,6,6,7,7,9,9,10,10,11,11,12,12,13,13,14,14,15,15,18,18,21,21,23,23,24,24,25,25,26,26,27,27,28,28,29,29,31,31,32,32,33,33,34,34,35,35,36,36,38,38,41,41,42,42,43,43,44,44,45,45,46,46],"right_children":[2,4,6,8,10,12,14,16,-1,18,20,22,24,26,28,30,-1,-1,32,-1,-1,34,-1,36,38,40,42,44,46,48,-1,50,52,54,56,58,60,-1,62,-1,-1,64,66,68,70,72,74,-1,-1,-1,-1,-1,-1,-1,-1,-1,-1,-1,-1,-1,-1,-1,-1,-1,-1,-1,-1,-1,-1,-1,-1,-1,-1,-1,-1],"split_conditions":[-3.417929E0,5.5974495E-1,6.393709E-3,2.26276E0,-2.3271897E0,-1.4758979E0,-9.443647E-1,5.770423E-1,-4.0156654E-1,2.1760268E0,-1.3012224E0,-8.7470704E-1,8.1063193E-1,-2.56083E0,2.619919E-1,3.0446228E-1,-1.5833744E-1,-3.0942458E-1,-7.436215E0,-5.7341784E-1,-3.245862E-1,-6.5917474E-1,-3.1154028E-1,1.1524029E0,1.1932418E0,1.5348539E0,6.0645866E-1,1.2671018E0,-1.4077566E0,2.0971522E0,-2.242928E-2,-4.871103E0,9.876925E-1,1.3802394E0,7.735926E-1,-1.4175076E0,1.3194153E0,-3.0594593E-1,-2.2993858E-1,-3.9075983E-1,3.3773872E-1,-1.6240686E0,-7.91827E-1,-1.0857408E0,-1.2428782E0,-1.5513772E0,-6.2531984E-1,3.0320647E-1,4.3545906E-2,1.1004137E-1,-5.640229E-1,-2.6176068E-1,2.8089252E-1,-3.508004E-1,2.2242848E-2,2.6352102E-1,-3.368545E-1,-1.9504794E-1,-3.0709234E-1,-2.9545E-1,2.4859338E-1,-3.1140247E-1,3.5370302E-1,3.5958413E-2,-3.477623E-1,-5.642908E-1,-3.6372286E-1,-2.980113E-1,8.125094E-2,1.22590154E-1,-2.730935E-1,3.3650386E-1,-3.6988053E-1,1.7999202E-2,-2.2184965E-1],"split_indices":[14,7,4,16,3,14,24,10,0,4,9,3,21,15,14,12,0,0,14,0,0,4,0,26,22,1,5,3,25,16,0,3,11,0,5,14,12,0,4,0,0,14,14,11,13,7,8,0,0,0,0,0,0,0,0,0,0,0,0,0,0,0,0,0,0,0,0,0,0,0,0,0,0,0,0],"split_type":[0,0,0,0,0,0,0,0,0,0,0,0,0,0,0,0,0,0,0,0,0,0,0,0,0,0,0,0,0,0,0,0,0,0,0,0,0,0,0,0,0,0,0,0,0,0,0,0,0,0,0,0,0,0,0,0,0,0,0,0,0,0,0,0,0,0,0,0,0,0,0,0,0,0,0],"sum_hessian":[1.6378589E4,3.7459666E3,1.2632623E4,3.5895574E3,1.564092E2,2.440265E3,1.0192357E4,3.5875837E3,1.9737766E0,1.3761584E2,1.8793352E1,2.4385715E2,2.1964077E3,5.0306842E2,9.689289E3,3.5865444E3,1.039322E0,5.978286E0,1.3163756E2,3.5942903E0,1.5199061E1,1.6003879E2,8.381836E1,2.1117415E3,8.466634E1,9.812829E0,4.9325558E2,7.07076E3,2.6185298E3,3.5854736E3,1.0707135E0,3.7846067E0,1.2785294E2,5.4413284E1,1.056255E2,2.0829253E3,2.8816147E1,6.416078E1,2.0505556E1,3.2370422E0,6.5757866E0,2.552059E2,2.3804968E2,5.9620522E3,1.1087073E3,1.80307E2,2.4382227E3,3.583401E3,2.0726764E0,1.1372387E0,2.647368E0,1.1994928E0,1.2665346E2,4.0581104E1,1.383218E1,8.4156876E1,2.1468624E1,1.5308857E1,2.0676165E3,2.440736E1,4.408786E0,6.206293E0,1.4299264E1,1.1725845E1,2.4348006E2,8.160832E1,1.5644136E2,3.833647E2,5.5786875E3,2.1803625E2,8.90671E2,1.5257738E2,2.772964E1,4.2437842E2,2.0138444E3],"tree_param":{"num_deleted":"0","num_feature":"30","num_nodes":"75","size_leaf_vector":"1"}},{"base_weights":[-9.352557E-3,9.7308815E-1,-2.5156096E-1,9.964327E-1,4.6076772E-1,-9.2150074E-1,-1.2221589E-1,9.98313E-1,-3.3947664E-1,7.1108866E-1,-3.7491372E-1,-3.4328213E-1,-9.975199E-1,-2.642962E-2,-6.3665515E-1,9.991382E-1,-7.4142195E-2,-2.9118478E-1,7.9721206E-1,-3.095466E-1,5.1561097E-4,-1.0122223E0,-6.3162905E-1,5.694615E-2,-7.230747E-1,9.569841E-1,-7.600021E-1,1.0009134E0,4.6719927E-1,-1.0226599E0,8.7264884E-1,2.7640536E-1,-3.305512E-1,-3.0514017E-1,-6.487424E-1,-3.0179238E-1,4.3155E-1,1.2596525E-1,-9.7895354E-1,3.8670823E-1,-1.0573004E0,-6.3139355E-1,1.0063189E0,-1.074812E0,-1.4535187E-1,-5.20727E-3,3.0046633E-1,-5.728175E-1,2.7446303E-1,-4.5659912E-1,9.591532E-2,2.806024E-1,-5.9484344E-2,1.9970326E-1,-2.5798088E-1,-2.9024842E-1,2.0538849E-1,-2.6680404E-1,3.3138382E-1,-4.899056E-2,1.1073879E-1,-3.4891844E-1,3.4804288E-1,3.5583925E-1,-3.590483E-1,-3.3041573E-1,-1.9455086E-2,3.0978093E-1,-6.61913E-2,-1.5780722E-1,-3.268115E-1,2.0086922E-1,-1.9249451E-1],"categories":[],"categories_nodes":[],"categories_segments":[],"categories_sizes":[],"default_left":[0,0,0,0,0,0,0,0,0,0,0,0,0,0,0,0,0,0,0,0,0,0,0,0,0,0,0,0,0,0,0,0,0,0,0,0,0,0,0,0,0,0,0,0,0,0,0,0,0,0,0,0,0,0,0,0,0,0,0,0,0,0,0,0,0,0,0,0,0,0,0,0,0],"id":11,"left_children":[1,3,5,7,9,11,13,15,-1,17,-1,19,21,23,25,27,-1,-1,29,-1,31,33,35,37,39,41,43,45,47,49,51,53,-1,-1,55,-1,57,59,61,63,65,-1,67,69,71,-1,-1,-1,-1,-1,-1,-1,-1,-1,-1,-1,-1,-1,-1,-1,-1,-1,-1,-1,-1,-1,-1,-1,-1,-1,-1,-1,-1],"loss_changes":[3.3780605E3,3.3120605E1,9.867371E2,1.1871094E1,5.4076317E1,8.065906E1,4.7040704E2,3.003662E0,0E0,1.6560726E1,0E0,5.104853E1,8.119263E0,4.6756467E2,2.9528528E2,2.064209E0,0E0,0E0,1.5202911E1,0E0,4.4351692E1,2.1314697E0,2.6524954E1,5.141674E2,3.1956308E2,1.8444778E1,2.6907526E2,1.7609863E0,1.3230299E1,3.5762386E0,6.9416656E0,5.21672E1,0E0,0E0,1.0695893E1,0E0,1.6781696E1,4.7425446E2,1.7826456E2,2.5446048E2,2.887323E1,0E0,3.6802979E0,6.77771E0,1.914965E2,0E0,0E0,0E0,0E0,0E0,0E0,0E0,0E0,0E0,0E0,0E0,0E0,0E0,0E0,0E0,0E0,0E0,0E0,0E0,0E0,0E0,0E0,0E0,0E0,0E0,0E0,0E0,0E0],"parents":[2147483647,0,0,1,1,2,2,3,3,4,4,5,5,6,6,7,7,9,9,11,11,12,12,13,13,14,14,15,15,18,18,20,20,21,21,22,22,23,23,24,24,25,25,26,26,27,27,28,28,29,29,30,30,31,31,34,34,36,36,37,37,38,38,39,39,40,40,42,42,43,43,44,44],"right_children":[2,4,6,8,10,12,14,16,-1,18,-1,20,22,24,26,28,-1,-1,30,-1,32,34,36,38,40,42,44,46,48,50,52,54,-1,-1,56,-1,58,60,62,64,66,-1,68,70,72,-1,-1,-1,-1,-1,-1,-1,-1,-1,-1,-1,-1,-1,-1,-1,-1,-1,-1,-1,-1,-1,-1,-1,-1,-1,-1,-1,-1],"split_conditions":[-3.417929E0,5.4402226E-1,6.393709E-3,2.26276E0,-2.3271897E0,-1.4175076E0,2.6517713E-1,3.0446228E-1,-3.3947664E-1,2.1760268E0,-3.7491372E-1,1.0012736E0,8.1063193E-1,1.923608E0,-1.8151859E0,2.2195814E0,-7.4142195E-2,-2.9118478E-1,-7.436215E0,-3.095466E-1,1.1938635E-1,1.1524029E0,1.1932418E0,6.846796E-1,-8.77975E-1,-3.3407855E-1,2.615997E0,-4.3543655E-1,-1.2551129E-1,-1.6244206E0,1.9074354E0,7.176329E-2,-3.305512E-1,-3.0514017E-1,-1.7488364E-2,-3.0179238E-1,-2.0000224E-1,6.771453E-2,1.3544749E0,-1.424314E-1,-2.3128267E-2,-6.3139355E-1,-2.3626347E0,2.7310959E-1,-1.3204544E0,-5.20727E-3,3.0046633E-1,-5.728175E-1,2.7446303E-1,-4.5659912E-1,9.591532E-2,2.806024E-1,-5.9484344E-2,1.9970326E-1,-2.5798088E-1,-2.9024842E-1,2.0538849E-1,-2.6680404E-1,3.3138382E-1,-4.899056E-2,1.1073879E-1,-3.4891844E-1,3.4804288E-1,3.5583925E-1,-3.590483E-1,-3.3041573E-1,-1.9455086E-2,3.0978093E-1,-6.61913E-2,-1.5780722E-1,-3.268115E-1,2.0086922E-1,-1.9249451E-1],"split_indices":[14,7,4,16,3,14,8,12,0,4,0,17,21,1,17,18,0,0,14,0,8,26,22,25,10,29,4,4,23,6,1,20,0,0,4,0,4,5,1,26,20,0,12,8,15,0,0,0,0,0,0,0,0,0,0,0,0,0,0,0,0,0,0,0,0,0,0,0,0,0,0,0,0],"split_type":[0,0,0,0,0,0,0,0,0,0,0,0,0,0,0,0,0,0,0,0,0,0,0,0,0,0,0,0,0,0,0,0,0,0,0,0,0,0,0,0,0,0,0,0,0,0,0,0,0,0,0,0,0,0,0,0,0,0,0,0,0,0,0,0,0,0,0,0,0,0,0,0,0],"sum_hessian":[1.4194163E4,2.8066936E3,1.138747E4,2.6834724E3,1.232212E2,1.8417977E3,9.545672E3,2.6816338E3,1.8385689E0,1.08000145E2,1.5221051E1,2.146486E2,1.6271492E3,8.048187E3,1.4974847E3,2.6800562E3,1.5778129E0,4.761123E0,1.0323902E2,7.081762E1,1.43831E2,1.5625938E3,6.4555435E1,7.188743E3,8.5944385E2,1.0709261E2,1.3903921E3,2.670263E3,9.793253E0,3.6093318E0,9.962969E1,1.1563889E2,2.8192095E1,1.5399862E3,2.2607449E1,4.7784363E1,1.6771076E1,6.7405195E3,4.4822357E2,1.9888785E2,6.6055597E2,1.0376463E0,1.0605496E2,9.189686E2,4.7142352E2,1.6633669E0,2.6685994E3,1.034783E0,8.75847E0,2.5332193E0,1.0761125E0,9.42395E1,5.3901887E0,8.6441246E1,2.9197649E1,1.8467138E1,4.1403093E0,5.552622E0,1.1218455E1,3.07858E3,3.6619397E3,4.1312317E2,3.510042E1,1.3233275E2,6.655509E1,6.3235657E2,2.8199427E1,1.0398576E2,2.0692027E0,2.471012E1,8.942585E2,1.783026E2,2.9312094E2],"tree_param":{"num_deleted":"0","num_feature":"30","num_nodes":"73","size_leaf_vector":"1"}},{"base_weights":[-1.0207032E-2,9.353934E-1,-2.1317798E-1,9.7762066E-1,-6.985755E-1,-9.2358595E-1,-1.08703636E-1,9.879295E-1,-8.027912E-1,2.8368074E-1,-1.2541372E0,-3.5176426E-1,-1.0017769E0,-4.4262107E-2,-8.546161E-1,-2.1651514E-1,9.902281E-1,-4.5017883E-1,2.4766366E-1,-2.996597E-1,-4.2194024E-1,-5.349989E-2,-3.035189E-1,-3.032543E-1,-6.4614946E-1,-2.0854346E-1,2.94735E-1,5.392244E-1,-1.1330849E0,9.936552E-1,-1.7363344E-1,2.2131185E-1,-3.2222015E-1,-2.934782E-1,6.137566E-1,-8.276164E-1,2.0700553E-2,-4.1759333E-1,4.9826998E-1,9.044415E-1,-6.592898E-2,1.639063E-1,-1.3454568E0,2.983846E-1,-1.0268188E-2,-8.1016046E-1,2.0639226E-1,1.5345998E-1,-3.1711024E-1,-1.7263237E-1,2.906681E-1,-2.7676693E-1,4.3073658E-2,-2.7769506E-1,4.851827E-2,1.0842971E-1,-2.4494967E-1,1.8099883E-1,-3.26266E-1,2.834538E-1,-1.8228103E-1,-3.1858623E-1,1.1760859E-1,2.7564567E-1,-3.7467474E-1,-3.4348363E-1,-4.8364845E-1],"categories":[],"categories_nodes":[],"categories_segments":[],"categories_sizes":[],"default_left":[0,0,0,0,0,0,0,0,0,0,0,0,0,0,0,0,0,0,0,0,0,0,0,0,0,0,0,0,0,0,0,0,0,0,0,0,0,0,0,0,0,0,0,0,0,0,0,0,0,0,0,0,0,0,0,0,0,0,0,0,0,0,0,0,0,0,0],"id":12,"left_children":[1,3,5,7,9,11,13,15,17,-1,19,21,23,25,27,-1,29,-1,-1,-1,-1,31,-1,-1,33,35,37,39,41,43,45,47,-1,-1,49,51,53,55,57,59,61,63,65,-1,-1,-1,-1,-1,-1,-1,-1,-1,-1,-1,-1,-1,-1,-1,-1,-1,-1,-1,-1,-1,-1,-1,-1],"loss_changes":[2.3938806E3,1.5276355E2,7.620248E2,4.023633E1,5.243949E1,5.8504517E1,4.3032077E2,9.112793E0,1.5922974E1,0E0,2.4267578E-1,3.1419233E1,3.0806885E0,4.5907944E2,2.7693854E2,0E0,8.687012E0,0E0,0E0,0E0,0E0,3.1418922E1,0E0,0E0,1.3806347E1,7.880036E2,3.9033997E2,2.640997E1,1.6375183E2,2.1347656E0,1.7356026E1,3.3345E1,0E0,0E0,3.597618E0,1.3848315E2,5.4105536E2,1.8629703E2,3.4941595E2,5.120701E0,2.1309614E1,9.119349E1,2.54422E1,0E0,0E0,0E0,0E0,0E0,0E0,0E0,0E0,0E0,0E0,0E0,0E0,0E0,0E0,0E0,0E0,0E0,0E0,0E0,0E0,0E0,0E0,0E0,0E0],"parents":[2147483647,0,0,1,1,2,2,3,3,4,4,5,5,6,6,7,7,8,8,10,10,11,11,12,12,13,13,14,14,16,16,21,21,24,24,25,25,26,26,27,27,28,28,29,29,30,30,31,31,34,34,35,35,36,36,37,37,38,38,39,39,40,40,41,41,42,42],"right_children":[2,4,6,8,10,12,14,16,18,-1,20,22,24,26,28,-1,30,-1,-1,-1,-1,32,-1,-1,34,36,38,40,42,44,46,48,-1,-1,50,52,54,56,58,60,62,64,66,-1,-1,-1,-1,-1,-1,-1,-1,-1,-1,-1,-1,-1,-1,-1,-1,-1,-1,-1,-1,-1,-1,-1,-1],"split_conditions":[-2.120584E0,-3.9291862E-1,-4.2116567E-2,2.6118534E0,-4.7486377E0,-1.4758979E0,1.3668242E0,-5.1540023E-1,-6.177038E-1,2.8368074E-1,2.468017E-1,-8.7470704E-1,1.4418054E0,1.6598722E0,-3.2076874E0,-2.1651514E-1,2.483428E0,-4.5017883E-1,2.4766366E-1,-2.996597E-1,-4.2194024E-1,1.0961618E-1,-3.035189E-1,-3.032543E-1,6.333638E-1,-7.214824E-2,-1.7997439E-1,-1.553455E-1,-7.7903575E-1,1.195265E0,4.6882045E-1,7.213764E-1,-3.2222015E-1,-2.934782E-1,8.746825E-1,4.254615E-1,-1.0472919E0,2.3606767E-1,1.010822E0,1.2521269E0,-2.0523968E-1,-8.212976E-1,3.822165E-1,2.983846E-1,-1.0268188E-2,-8.1016046E-1,2.0639226E-1,1.5345998E-1,-3.1711024E-1,-1.7263237E-1,2.906681E-1,-2.7676693E-1,4.3073658E-2,-2.7769506E-1,4.851827E-2,1.0842971E-1,-2.4494967E-1,1.8099883E-1,-3.26266E-1,2.834538E-1,-1.8228103E-1,-3.1858623E-1,1.1760859E-1,2.7564567E-1,-3.7467474E-1,-3.4348363E-1,-4.8364845E-1],"split_indices":[10,12,4,7,14,14,2,4,1,0,4,3,22,4,14,0,16,0,0,0,0,20,0,0,18,18,17,20,20,9,1,5,0,0,21,21,0,16,9,0,21,14,18,0,0,0,0,0,0,0,0,0,0,0,0,0,0,0,0,0,0,0,0,0,0,0,0],"split_type":[0,0,0,0,0,0,0,0,0,0,0,0,0,0,0,0,0,0,0,0,0,0,0,0,0,0,0,0,0,0,0,0,0,0,0,0,0,0,0,0,0,0,0,0,0,0,0,0,0,0,0,0,0,0,0,0,0,0,0,0,0,0,0,0,0,0,0],"sum_hessian":[1.2470675E4,2.2031301E3,1.0267545E4,2.1480198E3,5.511036E1,1.315375E3,8.95217E3,2.1360964E3,1.192323E1,1.3741247E1,4.1369114E1,1.5888974E2,1.1564852E3,8.241244E3,7.109255E2,2.4478645E0,2.1336487E3,8.401369E0,3.521861E0,1.8284912E1,2.30842E1,1.1017733E2,4.8712414E1,1.1259244E3,3.0560757E1,5.551377E3,2.6898672E3,1.18225624E2,5.926998E2,2.1275303E3,6.118384E0,8.742046E1,2.275687E1,2.436238E1,6.198377E0,1.499465E3,4.0519119E3,5.975433E2,2.092324E3,7.342077E1,4.4804855E1,8.342676E1,5.092731E2,2.1255771E3,1.9530807E0,1.0130471E0,5.1053367E0,7.1734505E1,1.5685954E1,1.2827328E0,4.9156446E0,1.3659824E3,1.3348257E2,5.2478955E2,3.5271223E3,2.0238939E2,3.9515384E2,1.9629028E3,1.2942114E2,7.187526E1,1.5455093E0,1.3696675E1,3.110818E1,5.460132E1,2.8825438E1,2.9373367E2,2.155394E2],"tree_param":{"num_deleted":"0","num_feature":"30","num_nodes":"67","size_leaf_vector":"1"}},{"base_weights":[-1.181308E-2,9.516088E-1,-1.7199749E-1,9.7908306E-1,4.263467E-1,-9.0946335E-1,-8.526141E-2,9.8141956E-1,-2.927794E-1,6.934597E-1,-6.836694E-1,-3.2149473E-1,-1.0027628E0,-1.1626534E0,-4.0850274E-2,-4.5307245E-2,9.825484E-1,7.567103E-1,-4.3233344E-1,5.573042E-1,-1.0681449E0,-3.0848932E-1,-5.459961E-2,-3.018965E-1,-5.457387E-1,-1.2815946E0,-8.1881857E-1,7.5110786E-2,-3.8670588E-1,9.8482096E-1,3.391432E-1,8.6947E-1,-3.6719897E-1,1.9556664E-2,2.1194158E-1,1.4710136E-1,-3.9193255E-1,-3.3082747E-1,2.1344721E-1,1.4387125E-1,-2.6876462E-1,-1.6692108E0,-3.450692E-1,-1.1478086E0,1.2184339E-2,2.4454547E-1,-4.285204E-1,9.477308E-3,-8.116046E-1,2.9566252E-1,4.088236E-2,2.509817E-1,-3.774868E-1,-1.251925E-1,2.7152377E-1,2.3817691E-1,-5.23407E-1,1.9281192E-1,-3.050839E-1,-4.3694976E-1,-7.046747E-1,5.051233E-4,-3.523438E-1,-2.8802794E-1,1.9039793E-1,-9.655427E-2,1.1705876E-1,7.168707E-2,-2.3953931E-1,9.485817E-2,-3.404213E-1,-5.1254008E-2,-3.2843107E-1],"categories":[],"categories_nodes":[],"categories_segments":[],"categories_sizes":[],"default_left":[0,0,0,0,0,0,0,0,0,0,0,0,0,0,0,0,0,0,0,0,0,0,0,0,0,0,0,0,0,0,0,0,0,0,0,0,0,0,0,0,0,0,0,0,0,0,0,0,0,0,0,0,0,0,0,0,0,0,0,0,0,0,0,0,0,0,0,0,0,0,0,0,0],"id":13,"left_children":[1,3,5,7,9,11,13,15,-1,17,19,21,23,25,27,-1,29,31,-1,33,35,-1,37,-1,39,41,43,45,47,49,51,53,55,-1,-1,-1,-1,-1,57,-1,-1,59,-1,61,63,65,67,69,71,-1,-1,-1,-1,-1,-1,-1,-1,-1,-1,-1,-1,-1,-1,-1,-1,-1,-1,-1,-1,-1,-1,-1,-1],"loss_changes":[1.6990804E3,2.2233643E1,6.0375757E2,7.767578E0,2.4131477E1,5.4169434E1,4.0416284E2,2.0523682E0,0E0,9.84058E0,8.219579E0,2.5883947E1,8.4436035E-1,1.2626343E1,3.2546182E2,0E0,1.842041E0,8.379372E0,0E0,2.796483E-1,5.298765E0,0E0,2.8576365E1,0E0,3.590814E0,1.0641022E1,2.4268337E1,5.187309E2,3.4302264E2,7.7233887E-1,6.4270215E0,3.0398064E0,1.1784851E1,0E0,0E0,0E0,0E0,0E0,4.3523296E1,0E0,0E0,5.2861786E0,0E0,1.9507523E0,1.6436235E1,3.7534445E2,3.780758E2,3.7076846E2,1.7820709E2,0E0,0E0,0E0,0E0,0E0,0E0,0E0,0E0,0E0,0E0,0E0,0E0,0E0,0E0,0E0,0E0,0E0,0E0,0E0,0E0,0E0,0E0,0E0,0E0],"parents":[2147483647,0,0,1,1,2,2,3,3,4,4,5,5,6,6,7,7,9,9,10,10,11,11,12,12,13,13,14,14,16,16,17,17,19,19,20,20,22,22,24,24,25,25,26,26,27,27,28,28,29,29,30,30,31,31,32,32,38,38,41,41,43,43,44,44,45,45,46,46,47,47,48,48],"right_children":[2,4,6,8,10,12,14,16,-1,18,20,22,24,26,28,-1,30,32,-1,34,36,-1,38,-1,40,42,44,46,48,50,52,54,56,-1,-1,-1,-1,-1,58,-1,-1,60,-1,62,64,66,68,70,72,-1,-1,-1,-1,-1,-1,-1,-1,-1,-1,-1,-1,-1,-1,-1,-1,-1,-1,-1,-1,-1,-1,-1,-1],"split_conditions":[-3.5863593E0,4.9696854E-1,-6.8893656E-2,2.0971522E0,-4.610082E0,-1.4758979E0,-9.443647E-1,-4.3543655E-1,-2.927794E-1,3.282873E0,-1.3477805E0,-7.511666E-1,1.8130744E0,5.603167E-1,3.437448E-1,-4.5307245E-2,2.2195814E0,1.9074354E0,-4.3233344E-1,1.8769505E0,-2.286314E0,-3.0848932E-1,-6.226248E-1,-3.018965E-1,-8.755003E-1,-7.91827E-1,-1.013494E0,3.9624992E-1,-1.4390974E-1,5.2531624E-1,-1.9752358E-1,-7.436215E0,4.047726E0,1.9556664E-2,2.1194158E-1,1.4710136E-1,-3.9193255E-1,-3.3082747E-1,6.4499325E-1,1.4387125E-1,-2.6876462E-1,2.8539953E0,-3.450692E-1,-2.5364108E0,1.8163258E-2,-4.0189636E-1,-1.4175076E0,1.0901141E0,-5.487238E-1,2.9566252E-1,4.088236E-2,2.509817E-1,-3.774868E-1,-1.251925E-1,2.7152377E-1,2.3817691E-1,-5.23407E-1,1.9281192E-1,-3.050839E-1,-4.3694976E-1,-7.046747E-1,5.051233E-4,-3.523438E-1,-2.8802794E-1,1.9039793E-1,-9.655427E-2,1.1705876E-1,7.168707E-2,-2.3953931E-1,9.485817E-2,-3.404213E-1,-5.1254008E-2,-3.2843107E-1],"split_indices":[14,7,4,16,14,14,24,4,0,2,15,4,22,9,24,0,18,1,0,11,12,0,5,0,20,14,24,0,16,10,19,14,4,0,0,0,0,0,5,0,0,4,0,14,2,22,14,3,10,0,0,0,0,0,0,0,0,0,0,0,0,0,0,0,0,0,0,0,0,0,0,0,0],"split_type":[0,0,0,0,0,0,0,0,0,0,0,0,0,0,0,0,0,0,0,0,0,0,0,0,0,0,0,0,0,0,0,0,0,0,0,0,0,0,0,0,0,0,0,0,0,0,0,0,0,0,0,0,0,0,0,0,0,0,0,0,0,0,0,0,0,0,0,0,0,0,0,0,0],"sum_hessian":[1.1007685E4,1.5685815E3,9.439103E3,1.4897926E3,7.878888E1,9.923393E2,8.446764E3,1.4885116E3,1.2809925E0,6.380918E1,1.4979698E1,1.3650945E2,8.5582983E2,3.3340268E2,8.113361E3,1.350071E0,1.4871616E3,6.2599754E1,1.2094281E0,3.4368958E0,1.1542803E1,3.66359E1,9.987355E1,8.480245E2,7.805373E0,2.4568622E2,8.771646E1,6.0767017E3,2.0366593E3,1.4813986E3,5.7630343E0,5.709764E1,5.50211E0,1.1337124E0,2.3031833E0,1.3905839E0,1.0152219E1,1.9705189E1,8.016836E1,1.8928833E0,5.91249E0,5.9224754E1,1.8646146E2,6.256575E1,2.515071E1,4.547364E3,1.5293375E3,1.0544495E3,9.8220984E2,1.47998E3,1.41855E0,4.757702E0,1.0053325E0,1.2488832E0,5.584876E1,3.2154071E0,2.2867026E0,5.97874E1,2.0380962E1,4.7501984E1,1.172277E1,1.4399867E0,6.1125767E1,9.605301E0,1.5545408E1,9.299279E2,3.617436E3,5.4548737E2,9.838502E2,8.3211707E2,2.2233241E2,3.0152066E2,6.8068915E2],"tree_param":{"num_deleted":"0","num_feature":"30","num_nodes":"73","size_leaf_vector":"1"}},{"base_weights":[-1.385819E-2,9.515557E-1,-1.4273767E-1,9.665173E-1,-1.1581098E0,-8.9048237E-1,-7.274168E-2,9.716171E-1,-3.0595168E-1,-8.274695E-2,-3.7405795E-1,-2.960202E-1,-9.974985E-1,-1.2280302E0,-2.7875766E-2,9.740472E-1,-1.9569744E-1,-3.083291E-1,-3.6974218E-2,-3.0166367E-1,-6.2339336E-1,-1.3938521E0,3.9433235E-1,-4.0265533E-1,1.0290767E-1,8.771456E-1,9.935793E-1,-3.1704217E-1,1.9256093E-1,4.5236322E-1,-2.824467E-1,-3.318825E-1,-1.4669685E0,-3.452235E-1,3.3524603E-1,-6.808742E-1,2.322071E-1,6.3993726E-3,6.677075E-1,-1.0034463E0,2.8917137E-1,2.987185E-1,1.1751167E-3,1.4089514E-1,-2.93944E-1,-6.364593E-2,2.1554853E-1,-5.025927E-1,-3.8873297E-1,-2.9160568E-1,1.6945513E-1,2.134416E-1,-3.495417E-1,-1.6236323E-1,4.868112E-2,2.7502584E-1,-1.6014232E-1],"categories":[],"categories_nodes":[],"categories_segments":[],"categories_sizes":[],"default_left":[0,0,0,0,0,0,0,0,0,0,0,0,0,0,0,0,0,0,0,0,0,0,0,0,0,0,0,0,0,0,0,0,0,0,0,0,0,0,0,0,0,0,0,0,0,0,0,0,0,0,0,0,0,0,0,0,0],"id":14,"left_children":[1,3,5,7,9,11,13,15,-1,-1,-1,17,19,21,23,25,-1,-1,27,-1,29,31,33,35,37,39,41,-1,43,45,-1,-1,47,-1,-1,49,51,53,55,-1,-1,-1,-1,-1,-1,-1,-1,-1,-1,-1,-1,-1,-1,-1,-1,-1,-1],"loss_changes":[1.2404364E3,3.8180664E1,4.602753E2,1.2806641E1,3.3915138E-1,4.7593323E1,4.1688873E2,5.228882E0,0E0,0E0,0E0,2.2000095E1,1.2922974E0,8.143768E1,3.7960822E2,1.3288574E0,0E0,0E0,2.0546228E1,0E0,5.919857E0,4.117676E0,3.3310287E1,3.540311E2,3.1294913E2,7.778958E1,2.0379028E0,0E0,2.3778856E1,9.1985875E-1,0E0,0E0,5.4832153E0,0E0,0E0,5.0586328E2,4.1015378E2,4.187246E2,2.512063E2,0E0,0E0,0E0,0E0,0E0,0E0,0E0,0E0,0E0,0E0,0E0,0E0,0E0,0E0,0E0,0E0,0E0,0E0],"parents":[2147483647,0,0,1,1,2,2,3,3,4,4,5,5,6,6,7,7,11,11,12,12,13,13,14,14,15,15,18,18,20,20,21,21,22,22,23,23,24,24,25,25,26,26,28,28,29,29,32,32,35,35,36,36,37,37,38,38],"right_children":[2,4,6,8,10,12,14,16,-1,-1,-1,18,20,22,24,26,-1,-1,28,-1,30,32,34,36,38,40,42,-1,44,46,-1,-1,48,-1,-1,50,52,54,56,-1,-1,-1,-1,-1,-1,-1,-1,-1,-1,-1,-1,-1,-1,-1,-1,-1,-1],"split_conditions":[-1.6561038E0,-5.9868824E-1,-6.8893656E-2,1.2019148E0,-4.2729312E-1,-1.4758979E0,-4.0771186E-1,2.0860722E0,-3.0595168E-1,-8.274695E-2,-3.7405795E-1,1.013624E-2,1.5131617E0,3.95173E0,-2.8506973E-1,-2.641094E-1,-1.9569744E-1,-3.083291E-1,-6.226248E-1,-3.0166367E-1,-1.735269E0,7.038284E-1,1.3390089E0,4.3632203E-1,3.2583606E-1,-1.3395126E0,-1.7836455E0,-3.1704217E-1,5.129938E-3,6.1988086E-1,-2.824467E-1,-3.318825E-1,-2.8910857E-1,-3.452235E-1,3.3524603E-1,1.5706378E0,-4.7976185E-2,-2.6021263E-2,1.3241109E-1,-1.0034463E0,2.8917137E-1,2.987185E-1,1.1751167E-3,1.4089514E-1,-2.93944E-1,-6.364593E-2,2.1554853E-1,-5.025927E-1,-3.8873297E-1,-2.9160568E-1,1.6945513E-1,2.134416E-1,-3.495417E-1,-1.6236323E-1,4.868112E-2,2.7502584E-1,-1.6014232E-1],"split_indices":[17,12,4,16,12,14,27,10,0,0,0,21,22,5,5,26,0,0,5,0,13,4,22,25,21,0,12,0,28,24,0,0,14,0,0,7,21,28,25,0,0,0,0,0,0,0,0,0,0,0,0,0,0,0,0,0,0],"split_type":[0,0,0,0,0,0,0,0,0,0,0,0,0,0,0,0,0,0,0,0,0,0,0,0,0,0,0,0,0,0,0,0,0,0,0,0,0,0,0,0,0,0,0,0,0,0,0,0,0,0,0,0,0,0,0,0,0],"sum_hessian":[9.967495E3,1.1731615E3,8.794333E3,1.1654381E3,7.723356E0,7.5176355E2,8.04257E3,1.1629633E3,2.4749198E0,1.0813404E0,6.6420155E0,1.1526215E2,6.365014E2,2.9967316E2,7.7428965E3,1.1616251E3,1.3380982E0,2.9359903E1,8.590225E1,6.214462E2,1.5055136E1,2.7201166E2,2.7661507E1,2.0024622E3,5.7404346E3,2.0256757E2,9.5905756E2,1.5119893E1,7.078236E1,3.3394537E0,1.1715682E1,5.8409435E1,2.1360222E2,8.630489E0,1.9031017E1,1.3922549E3,6.102073E2,4.9035654E3,8.3686914E2,3.322676E0,1.9924489E2,9.5697345E2,2.0840921E0,5.7735928E1,1.3046428E1,1.0129647E0,2.3264892E0,9.238445E1,1.2121776E2,1.1286841E3,2.635708E2,4.5473285E2,1.5547444E2,1.0859402E3,3.817625E3,6.933843E2,1.4348488E2],"tree_param":{"num_deleted":"0","num_feature":"30","num_nodes":"57","size_leaf_vector":"1"}},{"base_weights":[-1.4920783E-2,9.1863245E-1,-1.2142644E-1,9.5153487E-1,3.260636E-1,-3.8902942E-2,-6.4455205E-1,9.561021E-1,-2.7487043E-1,-7.985686E-1,6.2737644E-1,-5.66199E-1,4.608627E-2,-1.0060976E0,-1.1960854E-1,-4.2256985E-2,9.587436E-1,-1.2328712E0,1.8806422E-1,-7.802566E-2,8.9708924E-1,2.5105732E-2,-1.1901789E0,1.9470486E-1,-5.3087837E-1,6.723208E-1,-1.0586423E0,2.4683253E-1,-1.0018424E0,-2.1246429E-1,1.6880584E-1,-6.743481E-2,9.604431E-1,-4.2364754E-2,-4.150273E-1,-6.985471E-1,5.6010306E-1,-1.7351538E-1,2.9191998E-1,4.0608558E-1,-1.4529068E0,-2.0849648E0,-8.0962706E-1,4.0063798E-1,-2.6749712E-1,-2.568941E-1,-1.0430014E0,-4.5811388E-1,8.760688E-1,-3.4088495E-1,-3.0935603E-1,5.8667785E-1,-8.6100286E-1,2.3501073E-1,-3.376847E-1,2.9206002E-1,2.2351156E-1,2.384191E-1,-2.3765408E-1,2.2522792E-1,-2.2791082E-1,-4.6568847E-1,4.3858027E-1,-3.594306E-1,-8.594004E-1,-5.54484E-1,-1.6755031E-2,-2.7047464E-1,1.4961514E-1,8.895611E-2,-1.997183E-1,2.0451536E-3,-3.0509874E-1,-3.1608027E-1,-1.8550393E-1,2.91127E-1,-1.2463293E-1,2.5546646E-1,-1.7056403E-1,2.8609985E-1,-3.8180396E-1,-3.051501E-1,4.5236883E-1],"categories":[],"categories_nodes":[],"categories_segments":[],"categories_sizes":[],"default_left":[0,0,0,0,0,0,0,0,0,0,0,0,0,0,0,0,0,0,0,0,0,0,0,0,0,0,0,0,0,0,0,0,0,0,0,0,0,0,0,0,0,0,0,0,0,0,0,0,0,0,0,0,0,0,0,0,0,0,0,0,0,0,0,0,0,0,0,0,0,0,0,0,0,0,0,0,0,0,0,0,0,0,0],"id":15,"left_children":[1,3,5,7,9,11,13,15,-1,17,19,21,23,25,27,29,31,33,-1,35,37,39,41,43,45,47,49,51,53,-1,-1,-1,55,-1,-1,-1,57,-1,-1,59,61,63,65,67,69,71,73,-1,75,-1,-1,77,79,81,-1,-1,-1,-1,-1,-1,-1,-1,-1,-1,-1,-1,-1,-1,-1,-1,-1,-1,-1,-1,-1,-1,-1,-1,-1,-1,-1,-1,-1],"loss_changes":[9.009257E2,1.7780579E1,3.510786E2,8.370483E0,1.7556759E1,3.1488852E2,2.1018912E2,2.3529663E0,0E0,7.6294236E0,7.7290134E0,3.5988522E2,5.190132E2,5.856958E1,1.4671771E2,1.7165931E0,1.9751587E0,1.25523E0,0E0,1.861583E1,3.8363838E0,2.8312173E2,1.5990814E2,4.5820215E2,1.7369205E2,1.053599E1,1.8518066E-1,1.2132548E2,2.0649338E1,0E0,0E0,0E0,1.737854E0,0E0,0E0,0E0,3.8651462E0,0E0,0E0,1.611779E2,3.2121902E1,9.404913E1,2.618553E2,4.2573285E2,3.335179E2,1.6217122E2,1.2920227E0,0E0,2.7698536E0,0E0,0E0,7.5810524E1,5.7795418E1,2.2158913E1,0E0,0E0,0E0,0E0,0E0,0E0,0E0,0E0,0E0,0E0,0E0,0E0,0E0,0E0,0E0,0E0,0E0,0E0,0E0,0E0,0E0,0E0,0E0,0E0,0E0,0E0,0E0,0E0,0E0],"parents":[2147483647,0,0,1,1,2,2,3,3,4,4,5,5,6,6,7,7,9,9,10,10,11,11,12,12,13,13,14,14,15,15,16,16,17,17,19,19,20,20,21,21,22,22,23,23,24,24,25,25,26,26,27,27,28,28,32,32,36,36,39,39,40,40,41,41,42,42,43,43,44,44,45,45,46,46,48,48,51,51,52,52,53,53],"right_children":[2,4,6,8,10,12,14,16,-1,18,20,22,24,26,28,30,32,34,-1,36,38,40,42,44,46,48,50,52,54,-1,-1,-1,56,-1,-1,-1,58,-1,-1,60,62,64,66,68,70,72,74,-1,76,-1,-1,78,80,82,-1,-1,-1,-1,-1,-1,-1,-1,-1,-1,-1,-1,-1,-1,-1,-1,-1,-1,-1,-1,-1,-1,-1,-1,-1,-1,-1,-1,-1],"split_conditions":[-3.5863593E0,7.090317E-1,2.7310959E-1,2.0971522E0,1.8019266E0,-3.4893012E-1,2.1760268E0,-1.7025775E0,-2.7487043E-1,1.4541454E0,-2.0523968E-1,1.1467606E0,3.2719174E-1,-1.8151859E0,8.4415925E-1,9.283415E-1,-4.3543655E-1,-1.3477805E0,1.8806422E-1,-6.707965E0,2.0957608E0,5.127548E-1,-2.6905835E-1,3.4183508E-1,4.200716E-1,-3.1528756E-1,-6.124525E-1,-1.8873614E-1,-3.595638E-1,-2.1246429E-1,1.6880584E-1,-6.743481E-2,1.7648963E0,-4.2364754E-2,-4.150273E-1,-6.985471E-1,-8.476345E-2,-1.7351538E-1,2.9191998E-1,-3.492313E-1,8.491477E-1,5.515336E-1,-1.5655969E-1,-6.9777507E-1,-1.7822376E0,5.88433E-2,1.3721513E0,-4.5811388E-1,-6.1172277E-1,-3.4088495E-1,-3.0935603E-1,8.402755E-1,-2.8230803E0,-3.6969814E-1,-3.376847E-1,2.9206002E-1,2.2351156E-1,2.384191E-1,-2.3765408E-1,2.2522792E-1,-2.2791082E-1,-4.6568847E-1,4.3858027E-1,-3.594306E-1,-8.594004E-1,-5.54484E-1,-1.6755031E-2,-2.7047464E-1,1.4961514E-1,8.895611E-2,-1.997183E-1,2.0451536E-3,-3.0509874E-1,-3.1608027E-1,-1.8550393E-1,2.91127E-1,-1.2463293E-1,2.5546646E-1,-1.7056403E-1,2.8609985E-1,-3.8180396E-1,-3.051501E-1,4.5236883E-1],"split_indices":[14,7,8,16,11,29,4,24,0,29,21,1,14,17,3,0,4,15,0,14,4,7,26,0,1,29,14,7,20,0,0,0,27,0,0,0,24,0,0,29,1,17,22,18,3,12,17,0,6,0,0,8,16,20,0,0,0,0,0,0,0,0,0,0,0,0,0,0,0,0,0,0,0,0,0,0,0,0,0,0,0,0,0],"split_type":[0,0,0,0,0,0,0,0,0,0,0,0,0,0,0,0,0,0,0,0,0,0,0,0,0,0,0,0,0,0,0,0,0,0,0,0,0,0,0,0,0,0,0,0,0,0,0,0,0,0,0,0,0,0,0,0,0,0,0,0,0,0,0,0,0,0,0,0,0,0,0,0,0,0,0,0,0,0,0,0,0,0,0],"sum_hessian":[9.058901E3,9.2688226E2,8.132019E3,8.775504E2,4.933185E1,7.024908E3,1.1071107E3,8.7589667E2,1.6536931E0,1.0075468E1,3.9256382E1,9.743174E2,6.050591E3,6.550441E2,4.520666E2,2.2717822E0,8.7362494E2,7.8261228E0,2.249345E0,1.1054733E1,2.8201647E1,5.0074963E2,4.7356775E2,4.811797E3,1.2387938E3,1.9526339E1,6.355178E2,3.1991022E2,1.3215639E2,1.0001001E0,1.271682E0,1.0644801E0,8.725604E2,1.1833888E0,6.642734E0,1.8569528E0,9.197781E0,1.057254E0,2.7144394E1,3.9870316E2,1.0204645E2,1.3997287E2,3.3359488E2,3.3287932E3,1.4830037E3,8.0801166E2,4.3078214E2,1.1048802E0,1.842146E1,1.5547328E2,4.8004453E2,2.4517079E2,7.473943E1,1.1940214E1,1.2021617E2,8.19254E2,5.33064E1,8.189219E0,1.0085613E0,3.079974E2,9.0705765E1,9.913372E1,2.9127324E0,6.667309E1,7.329978E1,1.3967723E2,1.9391766E2,2.3258005E2,3.0962134E3,6.138532E2,8.6915045E2,6.006217E2,2.0738994E2,4.188465E2,1.1935656E1,1.739895E1,1.0225074E0,1.9965544E2,4.5515354E1,1.35767355E1,6.1162697E1,6.120339E0,5.819875E0],"tree_param":{"num_deleted":"0","num_feature":"30","num_nodes":"83","size_leaf_vector":"1"}},{"base_weights":[-1.7533474E-2,9.2690474E-1,-1.0239076E-1,9.3935674E-1,-9.2304933E-1,-6.245441E-2,-1.064986E0,7.655353E-1,9.745319E-1,-1.3502449E-3,-3.504181E-1,-8.3017796E-1,-1.0341085E-2,5.347125E-2,-1.2403579E0,8.979821E-1,-3.1232142E0,9.787875E-1,-1.9356728E-1,-9.949432E-1,-9.5025204E-2,-1.2670112E0,2.0892141E-2,-4.0754232E-1,8.249726E-1,-1.1342678E0,-2.0234115E0,9.2223555E-1,-1.1711062E-1,2.0403694E-1,-2.2212145E0,9.818706E-1,-9.206839E-2,-3.00434E-1,-5.073401E-1,-3.0343682E-1,2.9172453E-1,-1.3321923E0,-4.1515037E-2,-9.822227E-1,5.8267746E-2,-2.639316E-1,3.1120205E-1,-7.426316E-1,-1.1522931E0,-2.548209E0,-3.6748943E-1,2.8139058E-1,-1.10353984E-1,5.6543723E-2,2.9623756E-1,-2.5190517E-1,1.3314718E-1,-2.887656E-1,1.7635828E-1,-3.1897825E-1,-4.1744402E-1,-2.946546E-1,2.771601E-1,2.2373472E-1,-3.251947E-1,1.11983195E-1,-2.1265835E-2,8.85389E-2,-3.2160345E-1,-6.570174E-2,-3.467379E-1,-8.525905E-1,-3.4746408E-1],"categories":[],"categories_nodes":[],"categories_segments":[],"categories_sizes":[],"default_left":[0,0,0,0,0,0,0,0,0,0,0,0,0,0,0,0,0,0,0,0,0,0,0,0,0,0,0,0,0,0,0,0,0,0,0,0,0,0,0,0,0,0,0,0,0,0,0,0,0,0,0,0,0,0,0,0,0,0,0,0,0,0,0,0,0,0,0,0,0],"id":16,"left_children":[1,3,5,7,9,11,13,15,17,-1,-1,19,21,23,25,27,29,31,-1,33,35,37,39,-1,41,43,45,47,-1,-1,-1,49,-1,-1,51,-1,53,55,57,59,61,-1,-1,63,65,67,-1,-1,-1,-1,-1,-1,-1,-1,-1,-1,-1,-1,-1,-1,-1,-1,-1,-1,-1,-1,-1,-1,-1],"loss_changes":[6.607632E2,1.6525024E1,2.9074927E2,3.3851929E0,1.1310463E0,2.9064035E2,5.916339E1,6.37778E1,4.4797974E0,0E0,0E0,5.583844E1,2.6707812E2,4.6651093E1,1.9345245E1,3.9615326E0,7.2155914E1,2.5101929E0,0E0,6.8777466E-1,3.0652103E1,1.3126282E1,2.4899934E2,0E0,1.0923059E1,7.798462E-1,9.367828E0,2.6472473E0,0E0,0E0,0E0,2.279419E0,0E0,0E0,2.5824213E0,0E0,2.3226397E1,1.018219E0,9.412573E0,4.2758408E1,2.605022E2,0E0,0E0,4.762471E0,4.6444702E-1,3.6740112E0,0E0,0E0,0E0,0E0,0E0,0E0,0E0,0E0,0E0,0E0,0E0,0E0,0E0,0E0,0E0,0E0,0E0,0E0,0E0,0E0,0E0,0E0,0E0],"parents":[2147483647,0,0,1,1,2,2,3,3,4,4,5,5,6,6,7,7,8,8,11,11,12,12,13,13,14,14,15,15,16,16,17,17,19,19,20,20,21,21,22,22,24,24,25,25,26,26,27,27,31,31,34,34,36,36,37,37,38,38,39,39,40,40,43,43,44,44,45,45],"right_children":[2,4,6,8,10,12,14,16,18,-1,-1,20,22,24,26,28,30,32,-1,34,36,38,40,-1,42,44,46,48,-1,-1,-1,50,-1,-1,52,-1,54,56,58,60,62,-1,-1,64,66,68,-1,-1,-1,-1,-1,-1,-1,-1,-1,-1,-1,-1,-1,-1,-1,-1,-1,-1,-1,-1,-1,-1,-1],"split_conditions":[-1.8151859E0,-7.215244E-1,1.5724993E0,-2.641094E-1,-7.089926E-2,-9.448882E-2,-1.7099698E0,1.1920453E0,-1.6615443E0,-1.3502449E-3,-3.504181E-1,1.0345346E0,-4.8367018E-1,3.2064804E-1,1.7276897E0,1.636155E0,-7.356482E0,5.993408E-1,-1.9356728E-1,1.6297259E0,3.110531E-2,1.6297259E0,-1.3643162E0,-4.0754232E-1,1.6369929E0,1.5986489E0,-6.124525E-1,1.4936204E0,-1.1711062E-1,2.0403694E-1,-2.2212145E0,-3.0177317E1,-9.206839E-2,-3.00434E-1,-2.2993858E-1,-3.0343682E-1,-5.2169424E-1,7.038284E-1,3.95173E0,-6.841319E0,-4.2729312E-1,-2.639316E-1,3.1120205E-1,-3.453132E-1,-2.5746963E0,1.7333575E-1,-3.6748943E-1,2.8139058E-1,-1.10353984E-1,5.6543723E-2,2.9623756E-1,-2.5190517E-1,1.3314718E-1,-2.887656E-1,1.7635828E-1,-3.1897825E-1,-4.1744402E-1,-2.946546E-1,2.771601E-1,2.2373472E-1,-3.251947E-1,1.11983195E-1,-2.1265835E-2,8.85389E-2,-3.2160345E-1,-6.570174E-2,-3.467379E-1,-8.525905E-1,-3.4746408E-1],"split_indices":[17,12,13,26,22,4,19,27,12,0,0,17,27,29,17,13,18,18,0,22,18,22,11,0,17,13,14,0,0,0,0,3,0,0,4,0,13,4,5,2,12,0,0,29,10,8,0,0,0,0,0,0,0,0,0,0,0,0,0,0,0,0,0,0,0,0,0,0,0],"split_type":[0,0,0,0,0,0,0,0,0,0,0,0,0,0,0,0,0,0,0,0,0,0,0,0,0,0,0,0,0,0,0,0,0,0,0,0,0,0,0,0,0,0,0,0,0,0,0,0,0,0,0,0,0,0,0,0,0,0,0,0,0,0,0,0,0,0,0,0,0],"sum_hessian":[8.242673E3,6.787252E2,7.5639478E3,6.746762E2,4.0490155E0,7.2636567E3,3.002912E2,1.17382484E2,5.572937E2,1.0670406E0,2.981975E0,4.607688E2,6.802888E3,4.079715E1,2.5949405E2,1.1425999E2,3.122497E0,5.562281E2,1.0656542E0,3.7611832E2,8.465046E1,1.6401881E2,6.638869E3,1.4146478E1,2.6650673E1,2.3068831E2,2.8805733E1,1.124277E2,1.8322953E0,2.0988672E0,1.0236299E0,5.551331E2,1.0949309E0,3.7012796E2,5.9903703E0,2.464266E1,6.0007797E1,1.5565294E2,8.365862E0,2.3756769E2,6.4013013E3,2.6040902E0,2.4046583E1,1.20071945E1,2.186811E2,1.6059074E1,1.2746658E1,1.1134277E2,1.0849254E0,4.125417E0,5.5100775E2,4.526116E0,1.4642544E0,1.103195E1,4.897585E1,3.1536396E1,1.2411655E2,4.2283554E0,4.1375065E0,1.2859994E1,2.2470769E2,1.860821E3,4.5404805E3,2.9178977E0,9.089297E0,1.0545272E0,2.1762659E2,1.2394957E1,3.664118E0],"tree_param":{"num_deleted":"0","num_feature":"30","num_nodes":"69","size_leaf_vector":"1"}},{"base_weights":[-1.4924362E-2,8.9181155E-1,-8.284712E-2,9.152346E-1,-2.3188575E-1,3.8104E-2,-3.8238606E-1,9.209643E-1,-2.0735575E-1,3.6885107E-1,-2.090367E0,-6.537555E-1,1.3194609E-1,2.5734568E-1,-7.3476666E-1,9.3187624E-1,2.7186343E-1,7.4208605E-1,-3.1897023E-1,-7.8653544E-1,-1.6199718E-1,-1.4847933E0,-3.0735645E-1,-3.4638244E-1,2.9024473E-1,5.4398024E-1,-1.4350269E0,-3.9307114E-1,-1.167849E0,9.5413977E-1,6.658339E-1,-8.1307983E-1,6.946263E-1,2.52343E-1,1.5170229E-2,-1.8701999E0,-8.2177037E-1,2.7862844E-1,-9.77675E-1,-6.0156363E-1,4.2391583E-1,-7.941244E-1,3.881514E-1,7.8456473E-1,-4.6867445E-1,-3.1344187E-1,-1.5626987E0,1.5326421E-1,-8.258577E-1,-9.849331E-1,-1.6125863E0,2.0578913E-1,2.9223496E-1,-1.0050699E0,2.8779697E-1,-1.6265217E-2,-3.365283E-1,2.5475296E-1,-4.0049803E-2,-3.557311E-1,-6.131206E-1,-3.4129703E-1,1.4746727E-1,2.2215094E-1,-3.7782714E-1,-4.9365193E-1,-1.5609553E-1,1.08724624E-1,-2.567679E-1,-3.3617714E-1,2.4349768E-1,-3.717113E-1,1.7605054E-1,1.9186121E-1,-4.6196524E-2,2.754569E-1,-3.172953E-1,1.3504675E-1,-3.928162E-1,4.7864247E-2,-4.7631207E-1,1.706175E-1,-3.1358293E-1,-3.405591E-1,-9.0376645E-2,-3.0662596E-1,5.9103954E-1,-6.177183E-1,-4.3301615E-1],"categories":[],"categories_nodes":[],"categories_segments":[],"categories_sizes":[],"default_left":[0,0,0,0,0,0,0,0,0,0,0,0,0,0,0,0,0,0,0,0,0,0,0,0,0,0,0,0,0,0,0,0,0,0,0,0,0,0,0,0,0,0,0,0,0,0,0,0,0,0,0,0,0,0,0,0,0,0,0,0,0,0,0,0,0,0,0,0,0,0,0,0,0,0,0,0,0,0,0,0,0,0,0,0,0,0,0,0,0],"id":17,"left_children":[1,3,5,7,9,11,13,15,-1,17,19,21,23,25,27,29,31,33,-1,-1,-1,35,37,39,41,43,45,47,49,51,53,55,57,-1,-1,59,61,63,65,67,69,71,73,75,77,-1,79,81,83,85,87,-1,-1,-1,-1,-1,-1,-1,-1,-1,-1,-1,-1,-1,-1,-1,-1,-1,-1,-1,-1,-1,-1,-1,-1,-1,-1,-1,-1,-1,-1,-1,-1,-1,-1,-1,-1,-1,-1],"loss_changes":[4.7740384E2,1.4430511E1,2.612723E2,5.5090637E0,1.3976716E1,3.336631E2,4.6780472E2,3.4858398E0,0E0,6.0211782E0,1.0883932E0,1.7624371E2,3.427295E2,3.585401E2,1.9751575E2,2.4374695E0,5.215705E0,5.297141E-1,0E0,0E0,0E0,4.4541565E1,1.7094049E2,2.2151154E2,3.613192E2,1.5419844E2,3.702713E0,1.7730103E2,4.6367737E1,1.8840637E0,5.4333515E1,7.1312356E-1,1.1162663E0,0E0,0E0,1.10277405E1,2.8799332E1,1.6617519E2,6.1112656E1,2.0770447E2,1.6900368E2,1.7394266E2,4.2524164E2,1.2665744E2,9.4706406E1,0E0,3.641861E0,1.6593999E2,6.753433E1,4.815619E1,9.887634E0,0E0,0E0,0E0,0E0,0E0,0E0,0E0,0E0,0E0,0E0,0E0,0E0,0E0,0E0,0E0,0E0,0E0,0E0,0E0,0E0,0E0,0E0,0E0,0E0,0E0,0E0,0E0,0E0,0E0,0E0,0E0,0E0,0E0,0E0,0E0,0E0,0E0,0E0],"parents":[2147483647,0,0,1,1,2,2,3,3,4,4,5,5,6,6,7,7,9,9,10,10,11,11,12,12,13,13,14,14,15,15,16,16,17,17,21,21,22,22,23,23,24,24,25,25,26,26,27,27,28,28,29,29,30,30,31,31,32,32,35,35,36,36,37,37,38,38,39,39,40,40,41,41,42,42,43,43,44,44,46,46,47,47,48,48,49,49,50,50],"right_children":[2,4,6,8,10,12,14,16,-1,18,20,22,24,26,28,30,32,34,-1,-1,-1,36,38,40,42,44,46,48,50,52,54,56,58,-1,-1,60,62,64,66,68,70,72,74,76,78,-1,80,82,84,86,88,-1,-1,-1,-1,-1,-1,-1,-1,-1,-1,-1,-1,-1,-1,-1,-1,-1,-1,-1,-1,-1,-1,-1,-1,-1,-1,-1,-1,-1,-1,-1,-1,-1,-1,-1,-1,-1,-1],"split_conditions":[-3.9185119E0,2.483428E0,4.2279284E-2,2.1440692E0,-3.217212E-1,-3.4893012E-1,-3.217212E-1,-3.8917693E-1,-2.0735575E-1,1.6930568E0,-7.7427506E-1,-1.5655969E-1,-2.8506973E-1,9.157302E-1,7.3902056E-2,1.6499639E0,-1.7306535E-1,-1.1779072E0,-3.1897023E-1,-7.8653544E-1,-1.6199718E-1,-3.8917693E-1,-3.492313E-1,1.3468808E0,-2.2040954E-1,1.1919509E0,6.849644E-1,-6.2695825E-1,7.4634385E-1,1.7038567E0,-3.828774E-1,-3.341286E-1,1.4813213E0,2.52343E-1,1.5170229E-2,5.865603E-1,1.6823678E0,-2.651724E-1,-2.84958E-1,-3.0318376E-1,-2.0163014E0,1.0184618E0,2.8512725E-1,6.9980043E-1,-7.633545E-1,-3.1344187E-1,-2.2202437E0,2.4259265E-1,4.4256774E-1,1.3279208E0,-3.4859163E-1,2.0578913E-1,2.9223496E-1,-1.0050699E0,2.8779697E-1,-1.6265217E-2,-3.365283E-1,2.5475296E-1,-4.0049803E-2,-3.557311E-1,-6.131206E-1,-3.4129703E-1,1.4746727E-1,2.2215094E-1,-3.7782714E-1,-4.9365193E-1,-1.5609553E-1,1.08724624E-1,-2.567679E-1,-3.3617714E-1,2.4349768E-1,-3.717113E-1,1.7605054E-1,1.9186121E-1,-4.6196524E-2,2.754569E-1,-3.172953E-1,1.3504675E-1,-3.928162E-1,4.7864247E-2,-4.7631207E-1,1.706175E-1,-3.1358293E-1,-3.405591E-1,-9.0376645E-2,-3.0662596E-1,5.9103954E-1,-6.177183E-1,-4.3301615E-1],"split_indices":[14,16,27,7,8,29,8,10,0,1,22,22,5,7,7,27,21,6,0,0,0,10,29,7,27,2,4,16,17,4,22,24,18,0,0,4,11,13,26,24,1,22,0,25,14,0,17,6,25,1,29,0,0,0,0,0,0,0,0,0,0,0,0,0,0,0,0,0,0,0,0,0,0,0,0,0,0,0,0,0,0,0,0,0,0,0,0,0,0],"split_type":[0,0,0,0,0,0,0,0,0,0,0,0,0,0,0,0,0,0,0,0,0,0,0,0,0,0,0,0,0,0,0,0,0,0,0,0,0,0,0,0,0,0,0,0,0,0,0,0,0,0,0,0,0,0,0,0,0,0,0,0,0,0,0,0,0,0,0,0,0,0,0,0,0,0,0,0,0,0,0,0,0,0,0,0,0,0,0,0,0],"sum_hessian":[7.749372E3,5.3919885E2,7.2101733E3,5.2837067E2,